<?xml version="1.0"?>
<opencv_storage>
<opencv_ml_svm>
  <format>3</format>
  <svmType>C_SVC</svmType>
  <kernel>
    <type>RBF</type>
    <gamma>8.9999999999999997e-02</gamma></kernel>
  <C>10.</C>
  <term_criteria><epsilon>1.0000000000000000e-02</epsilon>
    <iterations>1000</iterations></term_criteria>
  <var_count>324</var_count>
  <class_count>11</class_count>
  <class_labels type_id="opencv-matrix">
    <rows>11</rows>
    <cols>1</cols>
    <dt>i</dt>
    <data>
      0 1 2 3 4 5 6 7 8 9 10</data></class_labels>
  <sv_total>435</sv_total>
  <support_vectors>
    <_>
      2.29529127e-01 1.92992352e-02 5.51431514e-02 3.45567270e-04
      1.32793576e-01 5.38118044e-03 3.00471118e-04 1.22450443e-03
      2.34137803e-01 3.44252557e-01 3.28506529e-03 9.17582214e-03 0.
      9.65328235e-03 9.93402675e-04 1.73429376e-04 5.79570551e-05
      3.44252557e-01 3.44252557e-01 4.59915996e-02 1.24996953e-01
      9.26196482e-03 3.44252557e-01 1.70161687e-02 5.30600955e-04
      1.18775910e-03 3.44252557e-01 3.44252557e-01 1.91338584e-02
      5.14854304e-02 1.41830824e-03 1.30661339e-01 3.54841352e-03
      3.99075478e-04 1.33364010e-04 3.44252557e-01 3.41997355e-01 0. 0.
      0. 7.03707512e-04 0. 3.60210870e-05 1.20376144e-05 3.42609972e-01
      3.56391281e-01 1.88595186e-05 5.64346556e-05 0. 5.91922959e-04 0.
      2.49653203e-05 8.34299317e-06 3.56391281e-01 3.56391281e-01
      7.20754106e-05 3.06320930e-04 6.07869188e-05 1.70584524e-03 0.
      1.02800594e-04 3.43541615e-05 3.56391281e-01 3.56391281e-01
      6.72113529e-05 2.01121453e-04 0. 1.73201633e-03 0. 2.26279051e-04
      7.56186855e-05 3.56391281e-01 3.31527025e-01 4.61171403e-05
      1.37999523e-04 0. 3.35364603e-04 0. 2.20922127e-04 7.38283488e-05
      3.31527025e-01 3.31527025e-01 1.84468554e-05 5.51998091e-05
      1.91674987e-03 2.28130016e-02 1.15518889e-03 2.39628684e-02
      8.48515797e-03 3.31527025e-01 3.31527025e-01 1.18110438e-04
      3.53430136e-04 3.57453173e-05 1.03462571e-02 0. 1.21396501e-02
      4.16911673e-03 3.31527025e-01 3.31527025e-01 4.61171403e-05
      1.37999523e-04 9.81171848e-04 3.23691756e-01 0. 1.00102663e-01
      3.41261327e-02 3.31527025e-01 1.16594851e-01 2.54796073e-02
      6.82791471e-02 1.34663759e-02 4.29232568e-01 1.49397682e-02
      5.16492117e-04 7.47488579e-04 1.19538128e-01 3.87561649e-01
      1.73245799e-02 4.78569157e-02 3.28191323e-03 3.05269808e-01
      3.94136785e-03 3.13488592e-04 6.55215626e-05 3.87991041e-01
      1.77054293e-02 4.80389921e-03 1.15664983e-02 1.92362163e-02
      4.29232568e-01 2.06277855e-02 1.49760153e-02 4.03172057e-03
      1.78941563e-02 7.30869249e-02 3.84045905e-03 9.82575398e-03
      6.29013171e-03 4.29232568e-01 8.94696452e-03 1.15319723e-02
      2.71048467e-03 7.28217214e-02 4.47707087e-01 8.04296404e-04
      2.97256676e-03 4.51244938e-04 1.94524822e-03 1.93710694e-05
      6.15443627e-04 1.91648069e-04 4.47707087e-01 4.47707087e-01
      4.69395512e-04 1.40460720e-03 0. 1.19007612e-03 0. 1.76164042e-03
      5.88710071e-04 4.47707087e-01 2.01960891e-01 1.15539390e-03
      3.21673392e-03 2.66398711e-04 1.09315524e-03 7.17721414e-04
      9.20162420e-04 2.23367140e-04 2.01212779e-01 2.37020954e-01
      5.19560883e-04 1.55471987e-03 0. 0. 0. 2.13001668e-03
      7.11814617e-04 2.37201795e-01 4.19745773e-01 1.76671281e-04
      5.28666016e-04 1.75257039e-04 5.61579168e-02 2.24546311e-04
      1.85444131e-02 6.37274282e-03 4.19745773e-01 3.41957450e-01
      1.00771504e-04 3.01545602e-04 1.05154177e-03 4.19745773e-01
      1.34727720e-03 1.11698754e-01 3.83809172e-02 3.41648191e-01
      9.90001261e-02 1.61061157e-03 4.81956080e-03 3.52700357e-04
      1.13784663e-01 4.83879732e-04 3.92410019e-03 1.34061975e-03
      9.86662507e-02 5.63599952e-02 8.16690642e-03 2.44384948e-02
      2.11620145e-03 4.19745773e-01 2.90327705e-03 1.79592203e-02
      6.17718138e-03 5.63084446e-02 9.86791477e-02 7.38000206e-04
      8.78689054e-04 1.27359247e-02 3.44785720e-01 1.42080393e-02
      6.54386804e-02 1.73744597e-02 9.46186334e-02 3.25675875e-01
      7.37851544e-04 5.40199864e-04 4.33712406e-03 2.98433721e-01
      6.69746986e-03 4.20915745e-02 1.06459381e-02 3.22960138e-01
      2.69054204e-01 2.22017374e-02 6.28580153e-02 4.24173940e-03
      3.44785720e-01 3.54239624e-03 1.78691640e-01 5.94615676e-02
      2.67157823e-01 3.44785720e-01 1.65780336e-02 4.75568771e-02
      1.88145041e-03 8.18210542e-02 1.14255596e-03 5.30736260e-02
      1.64016616e-02 3.44785720e-01 3.44851822e-01 1.66814323e-04
      2.28128629e-04 0. 4.42458811e-04 2.00631577e-04 7.80170158e-05
      1.17830596e-05 3.44851822e-01 3.44851822e-01 2.41985526e-05
      7.24110141e-05 0. 0. 0. 1.22890910e-04 4.10679786e-05
      3.44851822e-01 3.44851822e-01 5.33656530e-05 4.47761064e-04
      1.96924462e-04 1.73868961e-03 1.16966221e-04 9.46029127e-02
      3.31218019e-02 3.44851822e-01 3.44851822e-01 1.72728542e-02
      5.28326668e-02 0. 1.35462091e-03 2.76395935e-04 1.69163123e-01
      5.84319159e-02 3.44851822e-01 3.12687516e-01 4.20623878e-03
      1.25866700e-02 1.25174658e-04 4.82523926e-02 2.04040625e-04
      1.49086292e-04 4.98220252e-05 3.12687516e-01 2.27421239e-01
      2.69585811e-02 8.06703344e-02 7.51047803e-04 3.12687516e-01
      1.22424343e-03 4.11817346e-05 1.37622128e-05 2.27421239e-01
      3.12687516e-01 5.12452200e-02 1.59757286e-01 0. 8.00823141e-03
      5.78751147e-04 4.66705859e-02 1.62632912e-02 3.12687516e-01
      3.12687516e-01 8.77830163e-02 2.67625153e-01 2.29201440e-04
      2.27774620e-01 1.20208238e-03 1.83097079e-01 6.23488240e-02
      3.12687516e-01</_>
    <_>
      2.33268589e-01 1.62319373e-02 9.15306062e-02 4.80020754e-02
      2.06837833e-01 1.36690110e-03 8.63347843e-04 7.15242848e-02
      3.14129442e-01 3.14129442e-01 8.59198481e-05 1.51757905e-02
      7.80076860e-03 2.66432222e-02 3.20902269e-04 3.89741850e-04
      2.43140638e-01 3.14129442e-01 1.52844727e-01 6.30574673e-03
      8.36044252e-02 5.40885180e-02 3.14129442e-01 1.09310169e-03
      7.02682359e-04 4.05179784e-02 2.12612092e-01 3.14129442e-01 0.
      3.73606347e-02 1.87409930e-02 2.84503877e-01 1.79298222e-04
      1.17113719e-04 2.61849791e-01 3.14129442e-01 2.20467284e-01 0. 0.
      0. 1.03940547e-03 3.63621184e-05 5.33765233e-05 2.41225779e-01
      3.17970365e-01 2.05805838e-01 0. 0. 0. 6.08968199e-04 0.
      5.47213676e-05 2.21140817e-01 3.17970365e-01 3.01660717e-01 0. 0.
      0. 5.04937628e-03 1.92644929e-05 0. 3.17970365e-01 3.17970365e-01
      3.17970365e-01 0. 0. 3.27491143e-05 1.86900061e-03 0.
      1.39379583e-03 3.17970365e-01 3.17970365e-01 1.73770532e-01
      4.80045601e-05 1.43647951e-04 0. 7.16106209e-04 0. 8.10637232e-03
      1.76004127e-01 3.11166734e-01 1.09736606e-01 6.37650664e-04
      5.81998320e-04 7.22573139e-04 1.06187407e-02 0. 9.86800790e-02
      9.05334204e-02 2.32685372e-01 3.11166734e-01 8.00075941e-06
      2.39413239e-05 1.71937936e-04 1.04078449e-01 4.24306765e-02
      8.18782821e-02 3.11166734e-01 3.11166734e-01 2.27449551e-01
      8.24429851e-04 7.49228231e-04 2.04856321e-03 3.11166734e-01
      1.32025048e-01 3.11166734e-01 2.91785598e-01 3.11166734e-01
      2.86653303e-02 1.65646925e-04 1.34842228e-02 8.75385106e-03
      3.38717431e-01 4.06286726e-03 4.52445932e-02 1.19334087e-02
      6.18153848e-02 9.29674506e-02 5.25422620e-05 9.48517770e-03
      5.11893677e-03 3.38717431e-01 1.28072128e-03 2.46221982e-02
      8.33134428e-02 1.89569309e-01 1.19443648e-01 1.67982969e-02
      4.74302238e-03 3.46721034e-03 3.38717431e-01 2.18246412e-02
      3.25860858e-01 1.60724208e-01 3.08244437e-01 3.07316154e-01
      2.51740329e-02 3.83292814e-03 5.71730139e-04 1.79698870e-01
      7.00346148e-03 1.03621662e-01 3.13183010e-01 3.38717431e-01
      1.68541357e-01 3.66544991e-05 1.09684188e-04 0. 1.14885941e-02
      2.89872405e-04 1.30555034e-03 1.42614812e-01 3.18074495e-01
      2.40350798e-01 2.64267699e-04 5.91610675e-04 4.75844543e-04
      1.34238945e-02 6.00344938e-05 4.21760743e-03 2.26317912e-01
      3.18074495e-01 3.18074495e-01 7.26914918e-03 1.15339458e-03
      3.48240341e-04 2.28643809e-02 2.93802842e-02 9.80077758e-02
      3.18074495e-01 3.18074495e-01 2.30519563e-01 1.69954228e-03
      3.33909690e-03 3.00260982e-03 1.04443960e-01 9.16788951e-02
      2.16874480e-01 3.18074495e-01 3.18074495e-01 1.27386063e-01
      2.06393874e-04 3.08491057e-04 1.52438320e-03 3.21901947e-01
      5.34175970e-02 5.03684282e-02 1.54662088e-01 2.93034166e-01
      5.47435023e-02 2.16217901e-04 3.21990374e-04 2.16872827e-03
      4.66819257e-01 1.24918982e-01 1.49890065e-01 1.10688299e-01
      1.28192261e-01 7.38392323e-02 1.42423809e-03 1.89094786e-02
      1.64544899e-02 4.66819257e-01 3.39557230e-02 4.03563082e-02
      9.40674394e-02 1.15501478e-01 3.40273939e-02 4.70760919e-04
      2.27555037e-02 4.08801474e-02 4.66819257e-01 2.75013018e-02
      1.35698321e-03 6.30199490e-03 3.98654416e-02 2.36597940e-01
      7.98149109e-02 1.39889643e-02 2.81046610e-03 1.76622435e-01
      6.60848096e-02 3.62886906e-01 2.81236082e-01 3.62886906e-01
      3.62886906e-01 1.23374432e-01 1.75150763e-02 1.63559953e-03
      3.61827090e-02 2.51756981e-02 1.57714397e-01 3.62886906e-01
      3.62886906e-01 5.11679426e-02 3.16394530e-02 5.20884804e-03
      4.55389032e-04 2.00240966e-03 2.40996946e-02 3.10256090e-02
      2.58846059e-02 1.16220742e-01 1.30803958e-01 4.92373109e-02
      6.94512948e-03 1.13847281e-03 5.33268740e-03 9.94233415e-03
      3.32332626e-02 9.09609571e-02 2.64429599e-01 2.73391396e-01
      1.20314667e-02 1.44139223e-03 3.60196398e-04 2.16808263e-02
      2.86351666e-02 2.14737952e-01 2.95245349e-01 2.95245349e-01
      2.70819634e-01 6.10652496e-04 1.17109530e-03 1.32920989e-03
      7.19662160e-02 8.82102400e-02 2.95245349e-01 2.95245349e-01
      2.95245349e-01 7.14756548e-02 4.80300467e-03 5.47885196e-04
      1.59037692e-04 9.96840745e-03 5.74658718e-03 1.54508904e-01
      1.51409522e-01 1.38763413e-01 2.38441393e-01 7.39049528e-06
      2.21151804e-05 0. 1.52404094e-02 1.57411937e-02 2.22732618e-01
      2.95245349e-01 2.95245349e-01 2.53376245e-01 1.86850391e-02
      4.40430269e-02 3.03694513e-02 2.65686750e-01 2.65781712e-02
      6.59853965e-02 2.52497673e-01 2.95469910e-01 1.79631174e-01
      1.19961359e-01 7.55782053e-02 1.31713912e-01 2.95469910e-01
      8.45350139e-03 5.11780847e-04 5.91259673e-02 1.85097635e-01
      2.82257140e-01 3.91455553e-02 3.02912798e-02 1.95702687e-02
      3.82700190e-02 4.20552446e-03 3.13944742e-02 2.60989219e-01
      2.95469910e-01 2.71918505e-01 1.97378606e-01 8.57249573e-02
      1.23640597e-01 2.12676555e-01 1.25038368e-03 1.19345391e-03
      1.21469453e-01 2.68642098e-01</_>
    <_>
      7.76785389e-02 9.65229496e-02 1.52667388e-01 1.11088596e-01
      1.63636222e-01 1.38468773e-03 2.95878621e-04 2.51769641e-04
      4.87465188e-02 3.04198921e-01 2.30791792e-01 1.51106954e-01
      1.12407707e-01 1.00740656e-01 1.93048466e-03 4.17655276e-04
      3.29071423e-04 3.04198921e-01 3.35112624e-02 5.18253148e-02
      1.37339130e-01 3.04198921e-01 3.04198921e-01 1.58524036e-03
      3.44417233e-04 1.15098184e-04 2.27447972e-02 3.04198921e-01
      1.71016276e-01 1.58698767e-01 3.04198921e-01 3.04198921e-01
      1.29232358e-03 5.74028709e-05 1.91830295e-05 3.04198921e-01
      3.49363148e-01 5.95945120e-02 1.21075818e-02 1.09288571e-02
      7.04981852e-03 8.02359486e-04 1.22338533e-04 4.84985976e-05
      3.49363148e-01 3.49363148e-01 4.74984372e-05 1.69225852e-04
      6.46546541e-04 1.21599308e-03 1.74979905e-05 8.55447979e-06
      3.34403780e-03 3.49363148e-01 3.49363148e-01 5.37574552e-02
      2.16525476e-02 8.09788108e-02 6.91431016e-02 4.44060919e-04 0. 0.
      3.49363148e-01 3.49363148e-01 0. 0. 1.43834641e-02 3.48932259e-02
      0. 0. 8.36009532e-03 3.49363148e-01 3.02252173e-01 4.41945085e-05
      2.73850921e-04 1.21898195e-02 3.35508063e-02 1.67014822e-02
      1.95517484e-02 1.76843833e-02 3.02252173e-01 2.96999276e-01
      3.80187776e-05 1.08193289e-02 1.03112616e-01 1.89805165e-01
      1.34062588e-01 1.29574865e-01 3.74344327e-02 3.02252173e-01
      3.02252173e-01 0. 7.40224170e-03 2.25522473e-01 2.42378160e-01
      4.17537093e-02 2.01467983e-02 3.49365473e-02 3.02252173e-01
      1.42193168e-01 2.55704890e-05 3.99098694e-02 3.02252173e-01
      3.02252173e-01 1.24002181e-01 6.81194812e-02 3.55818979e-02
      1.67219505e-01 1.39380118e-03 3.17221577e-03 3.74820717e-02
      3.11078936e-01 3.11078936e-01 3.83827166e-04 8.58016865e-05
      5.52861638e-05 1.33902219e-03 4.11187410e-02 1.88348629e-02
      3.06706317e-02 3.11078936e-01 3.11078936e-01 5.11909311e-04
      1.78818518e-04 2.19434471e-04 3.40710618e-02 5.15238419e-02
      7.13301881e-04 5.10599688e-02 3.11078936e-01 3.11078936e-01
      4.05859053e-02 7.73000121e-02 1.43685406e-02 7.29474649e-02
      3.08247447e-01 8.03015719e-04 1.70835704e-02 3.11078936e-01
      3.11078936e-01 1.86308604e-02 7.92590380e-02 6.61685690e-03
      3.11078936e-01 1.78988546e-01 2.08792780e-02 1.31508205e-02
      1.91136599e-01 2.04799250e-01 4.23155492e-04 5.77858416e-04
      4.44039149e-04 1.65816247e-01 2.24018663e-01 1.69560997e-04
      2.19337409e-03 1.24826953e-01 1.47523805e-01 0. 3.14875593e-04
      5.04676206e-03 2.30144456e-01 3.21624488e-01 1.09925761e-03
      5.36016328e-03 1.11522138e-01 2.09144399e-01 5.64326253e-03
      1.57263726e-01 3.01710889e-02 3.21624488e-01 3.21624488e-01
      2.12681051e-02 4.41117398e-02 2.68324643e-01 3.21624488e-01
      1.05712600e-02 2.02191755e-01 5.62038384e-02 3.21624488e-01
      5.40080331e-02 2.01041803e-05 1.34848859e-02 3.47618669e-01
      3.47618669e-01 1.01516899e-02 3.56498128e-03 8.02991539e-03
      6.21653423e-02 1.26443421e-02 0. 5.28652482e-02 3.47618669e-01
      3.47618669e-01 1.38061540e-02 4.73393546e-03 6.12176768e-03
      1.86534114e-02 6.77011237e-02 1.46690318e-02 6.80685192e-02
      3.47618669e-01 3.47618669e-01 5.76046249e-03 1.35172810e-02
      4.69244970e-03 5.10076880e-02 8.82567186e-03 6.65219361e-03
      8.15445408e-02 3.47618669e-01 3.47618669e-01 5.63757634e-03 0.
      7.29783846e-04 6.68299850e-03 1.73930824e-01 4.87308018e-02
      7.49698877e-02 2.78809369e-01 3.13327909e-01 1.07771158e-01
      2.05049977e-01 1.90850914e-01 2.01981172e-01 3.13327909e-01
      7.94737265e-02 4.86798957e-02 1.20242506e-01 1.91381320e-01
      4.82909977e-02 1.58213988e-01 9.86173898e-02 3.13327909e-01
      1.32951200e-01 6.54525682e-02 5.94736710e-02 2.11710017e-02
      1.01585254e-01 3.68752070e-02 1.12769447e-01 2.03329653e-01
      1.64743617e-01 3.13327909e-01 1.07341811e-01 7.54544139e-02
      5.24639059e-03 5.11198789e-02 3.54901291e-02 9.38149542e-02
      1.16331004e-01 3.13327909e-01 3.05570036e-01 1.08384769e-02
      4.78244713e-03 9.18911211e-03 1.03933260e-01 4.86956052e-02
      1.84777498e-01 6.16602190e-02 3.05570036e-01 3.05570036e-01
      2.97534112e-02 6.40805066e-02 6.17444962e-02 2.44836017e-01
      3.69650871e-02 1.92310482e-01 8.20611492e-02 3.05570036e-01
      3.05570036e-01 1.45782502e-02 7.89839309e-03 9.53816518e-04
      5.97852990e-02 7.27811530e-02 1.72099978e-01 8.92272815e-02
      3.05570036e-01 3.05570036e-01 2.79087294e-02 6.13268502e-02
      2.24996768e-02 7.87628368e-02 4.70558144e-02 1.26453802e-01
      9.27646235e-02 3.05570036e-01 2.82407850e-01 1.00331865e-01
      2.77116925e-01 2.82407850e-01 2.82407850e-01 7.97309633e-03
      3.13555226e-02 1.61012597e-02 2.82407850e-01 8.11873749e-02
      7.21742660e-02 2.18151540e-01 2.82407850e-01 2.82407850e-01
      8.92194360e-03 1.73738154e-04 1.41045358e-03 4.37670797e-02
      2.82407850e-01 1.13648929e-01 2.51824886e-01 1.33389354e-01
      1.37467057e-01 2.21145921e-03 1.01156756e-02 1.24125015e-02
      2.82407850e-01 1.11785263e-01 8.49909931e-02 1.76282927e-01
      1.56106532e-01 1.29222438e-01 4.37012222e-03 1.04242854e-03
      1.89471967e-03 6.64888248e-02</_>
    <_>
      3.09521794e-01 1.19777739e-01 1.13954432e-02 1.05411053e-01
      1.80768922e-01 8.36189613e-02 1.11629826e-03 2.17116438e-04
      2.26149276e-01 3.09521794e-01 8.38044360e-02 1.99251412e-03
      2.34068371e-02 2.82219239e-02 1.53180687e-02 9.13873722e-04
      7.87227400e-05 3.09521794e-01 1.68739617e-01 9.29197967e-02
      4.10633115e-03 1.03545576e-01 3.09521794e-01 3.09521794e-01
      3.31513509e-02 7.65336954e-05 1.25940755e-01 3.09521794e-01
      9.38832313e-02 6.27615314e-04 4.69604507e-02 2.72701472e-01
      2.25850537e-01 8.45571514e-03 4.16946204e-05 3.09521794e-01
      3.47869813e-01 4.08067554e-03 1.66228027e-04 4.35379043e-05
      1.18249306e-03 4.79292765e-04 2.45603442e-05 3.24245025e-06
      3.47869813e-01 3.47869813e-01 2.74250724e-05 8.20662754e-05 0.
      8.28806683e-03 1.07177831e-02 3.07675041e-02 3.35657410e-02
      3.47869813e-01 3.47869813e-01 1.00805964e-02 0. 0. 2.51888577e-02
      1.25456164e-02 2.60551897e-05 0. 3.47869813e-01 3.47869813e-01 0.
      0. 0. 1.07297093e-01 9.40960571e-02 3.84382680e-02 5.83458655e-02
      3.47869813e-01 3.02908242e-01 1.05666913e-04 3.16194724e-04 0.
      1.29206270e-01 7.37197250e-02 2.21693963e-01 1.06407799e-01
      3.02908242e-01 5.75695485e-02 3.81578109e-04 1.14182360e-03 0.
      2.20575020e-01 9.00185257e-02 2.14144915e-01 7.15723410e-02
      8.37230831e-02 2.57611185e-01 2.81044977e-05 8.40990397e-05 0.
      3.02908242e-01 3.02908242e-01 1.95679367e-01 1.17035434e-01
      3.02908242e-01 2.27014329e-02 1.40957112e-04 4.21795790e-04 0.
      3.02908242e-01 3.02908242e-01 1.77852079e-01 4.78961654e-02
      3.52818146e-02 1.39285419e-02 1.28860315e-02 0. 1.37274573e-02
      3.13562125e-01 3.13562125e-01 4.48716357e-02 0. 1.21768480e-02
      6.98571205e-02 1.70739274e-02 2.22748320e-04 1.02059357e-02
      3.13562125e-01 3.13562125e-01 1.36714848e-02 2.14467887e-04
      6.57077432e-02 1.94047634e-02 6.24304812e-04 3.57206081e-05
      9.10491333e-04 3.13562125e-01 3.13562125e-01 1.32492691e-01
      1.49939517e-02 3.02666202e-02 2.39131853e-01 2.30927995e-04
      1.42579095e-03 4.91868588e-04 3.13562125e-01 3.13562125e-01
      1.60914704e-01 2.31399555e-02 3.08412582e-01 1.84365079e-01
      5.52344881e-03 7.08540145e-04 5.09834463e-05 1.01998948e-01
      9.08478796e-02 1.96563592e-03 4.15585848e-04 1.82508588e-01
      1.80726469e-01 3.15753496e-05 2.12575484e-04 3.03395500e-04
      2.72672027e-01 2.43028894e-01 2.22848505e-02 2.93040592e-02
      1.94764003e-01 3.31897527e-01 5.55911043e-04 4.49500326e-03
      4.10541135e-04 1.54084221e-01 1.27918273e-01 9.09950584e-02
      6.86966479e-02 3.31897527e-01 3.31897527e-01 1.51846427e-02
      1.53226231e-03 2.76536425e-03 2.61970580e-01 2.52633691e-01
      1.78797245e-01 2.16605246e-01 3.31897527e-01 2.76138969e-02
      1.97583340e-05 5.91244461e-05 6.67408109e-04 3.47214222e-01
      3.47214222e-01 3.77162509e-02 1.61499064e-02 3.30916271e-02
      1.59509701e-03 1.65774254e-05 4.96058201e-05 7.92272971e-04
      3.47214222e-01 3.47214222e-01 5.10104485e-02 2.67969514e-03
      2.09872727e-03 8.78075063e-02 2.63860952e-02 2.83628167e-03
      1.94630418e-02 3.47214222e-01 3.47214222e-01 4.97229621e-02
      3.68642770e-02 8.25098455e-02 2.24750098e-02 2.47349348e-02
      1.51000842e-02 2.45609228e-02 3.47214222e-01 3.47214222e-01
      6.43673092e-02 2.31469327e-04 1.96729396e-02 7.08481520e-02
      1.08916557e-03 6.60368591e-04 3.93798761e-03 2.90231138e-01
      2.90231138e-01 2.90231138e-01 1.08072251e-01 1.24076232e-01
      2.90231138e-01 6.85727224e-02 2.35630758e-02 1.87743008e-02
      2.90231138e-01 2.40630478e-01 2.90231138e-01 1.71225876e-01
      2.90231138e-01 5.12204990e-02 1.15167059e-03 1.04255648e-03
      3.30233038e-03 4.65030596e-02 5.56258522e-02 1.46361068e-01
      9.66864228e-02 1.10411949e-01 2.90231138e-01 9.27786902e-02
      3.22475694e-02 4.35813740e-02 2.97237951e-02 5.68703003e-02
      1.40862361e-01 1.66400060e-01 2.90231138e-01 2.89601892e-01
      3.68950106e-02 1.28789796e-02 8.90997145e-03 3.74429449e-02
      2.75164247e-02 1.04824297e-01 9.70592648e-02 2.89601892e-01
      2.89601892e-01 1.65787190e-02 5.19108726e-04 9.19215090e-04
      9.52753872e-02 9.53695625e-02 2.89601892e-01 2.47294426e-01
      2.89601892e-01 2.89601892e-01 4.98608537e-02 1.69972386e-02
      2.18935069e-02 1.72066297e-02 1.18336277e-02 1.11435153e-01
      8.86121467e-02 2.73872077e-01 2.89601892e-01 7.41500128e-03
      1.09607179e-04 9.49021342e-05 2.67745126e-02 2.60642301e-02
      2.89601892e-01 1.95161194e-01 2.89601892e-01 2.76079327e-01
      7.50863031e-02 3.44127193e-02 4.54854444e-02 2.63337702e-01
      2.20407709e-01 1.13292783e-01 9.96722430e-02 2.76079327e-01
      1.38752475e-01 1.10229239e-01 1.55359238e-01 7.17077404e-02
      2.76079327e-01 2.76079327e-01 2.85881590e-02 7.33471999e-04
      1.29641235e-01 2.76079327e-01 3.95983346e-02 5.78396395e-02
      2.25594919e-02 7.03497157e-02 2.43280046e-02 1.05520450e-01
      7.43909702e-02 2.76079327e-01 2.76079327e-01 9.13190618e-02
      2.14730531e-01 5.71174882e-02 2.76079327e-01 4.45635654e-02
      1.88211456e-03 8.33310885e-04 2.68806249e-01</_>
    <_>
      3.36329550e-01 8.06005970e-02 1.24362990e-01 2.03348342e-02
      2.98602104e-01 1.59983081e-03 7.71539519e-04 2.39122906e-04
      2.37655967e-01 3.36329550e-01 2.68427990e-02 3.54948789e-02
      4.00860619e-04 5.87922744e-02 8.87421702e-05 2.27147641e-04
      6.14105375e-05 3.36329550e-01 1.50578618e-01 1.83811858e-02
      8.93637091e-02 1.63564105e-02 3.36329550e-01 1.19311083e-03
      5.12763276e-04 1.71356907e-04 8.87970403e-02 3.36329550e-01
      6.47806423e-03 4.73626591e-02 9.28678375e-04 3.36329550e-01
      1.35406459e-04 1.41580284e-04 8.67640338e-05 3.20992380e-01
      3.52894992e-01 1.65852452e-05 4.96293796e-05 0. 9.58815624e-04
      1.37452353e-05 2.73346304e-05 6.88912496e-06 3.52894992e-01
      3.52894992e-01 5.92665019e-05 1.77347974e-04 0. 1.74935220e-03 0.
      0. 0. 3.52894992e-01 3.52894992e-01 6.55552722e-05 5.22304726e-05
      0. 7.09033990e-03 2.09730442e-05 1.64918456e-05 1.11904425e-04
      3.52894992e-01 3.52894992e-01 1.69685867e-04 5.06009310e-05
      3.44461587e-04 1.18615432e-02 0. 1.36115326e-04 8.80447114e-05
      3.52894992e-01 3.43374401e-01 1.69007308e-05 5.05734279e-05 0.
      6.09085038e-02 1.12264277e-03 3.95370089e-02 1.42955119e-02
      3.43374401e-01 2.64688700e-01 1.56966154e-04 8.71293960e-05
      4.75488428e-04 3.43374401e-01 2.89962869e-02 1.60856485e-01
      1.50358170e-01 2.97174037e-01 2.55793959e-01 1.23772377e-04
      1.01567013e-04 1.28770154e-03 3.43374401e-01 5.10070287e-03
      5.00757694e-02 3.15304031e-03 3.02299142e-01 8.51582885e-02
      9.08294023e-05 4.06268082e-05 1.42681412e-03 3.43374401e-01
      3.04408688e-02 1.00880630e-01 3.49233970e-02 1.22176863e-01
      3.95693183e-02 7.77059991e-04 9.81684215e-03 3.14788823e-03
      3.61540049e-01 4.59300205e-02 1.72843281e-02 3.20106670e-02
      5.19495010e-02 1.86596259e-01 3.94686911e-04 7.48655293e-03
      8.53802485e-04 3.61540049e-01 2.96761021e-02 6.03488041e-03
      2.80336514e-02 2.03015745e-01 2.32738048e-01 2.67151166e-02
      3.53490487e-02 4.34876420e-03 3.61540049e-01 8.11887905e-02
      1.85172975e-01 2.22127795e-01 2.73214191e-01 3.61540049e-01
      4.59275283e-02 4.60185260e-02 6.44883548e-04 1.32908881e-01
      4.02043089e-02 3.49642485e-02 1.07174456e-01 3.61540049e-01
      2.62110054e-01 3.71703529e-04 3.33514472e-04 7.64262950e-05
      1.30759357e-02 6.41688006e-03 7.64580444e-03 1.97784211e-02
      2.70933777e-01 1.70578822e-01 1.16743357e-03 1.24180922e-03
      1.60034408e-03 4.27062511e-02 1.64558180e-02 3.57774273e-02
      4.49726991e-02 1.79287374e-01 3.68592918e-01 1.29018314e-02
      8.86641163e-03 1.01901715e-04 2.62173824e-02 3.88053544e-02
      1.94395557e-01 1.03768274e-01 3.68592918e-01 3.68592918e-01
      1.87629333e-03 2.28477153e-03 2.07266980e-03 9.31769162e-02
      9.76856649e-02 3.68592918e-01 1.95877671e-01 3.68592918e-01
      4.50344607e-02 8.63180670e-04 8.84341262e-03 7.18672667e-03
      3.87443632e-01 7.56362267e-03 1.65209752e-02 7.40142725e-03
      4.39762883e-02 1.21842166e-02 3.87246720e-04 1.07371509e-02
      1.03629027e-02 3.87443632e-01 1.08275162e-02 9.53297969e-03
      2.05713266e-04 1.03521962e-02 3.87443632e-01 1.46803437e-02
      6.51131570e-02 3.62392850e-02 2.94262171e-01 1.88501067e-02
      6.59125745e-02 2.80304756e-02 3.62087220e-01 2.86223263e-01
      6.75670430e-02 2.23303944e-01 7.93688819e-02 3.87443632e-01
      7.30085932e-03 3.11487733e-04 1.79453869e-03 1.37309089e-01
      3.68394703e-01 9.06152502e-02 1.27505243e-01 6.39840728e-03
      2.40502030e-01 4.43045832e-02 3.20791543e-01 3.68394703e-01
      3.68394703e-01 3.68394703e-01 1.59367010e-01 1.68098047e-01
      1.50062598e-03 6.33601993e-02 1.39547782e-02 8.47221315e-02
      1.69938296e-01 3.68394703e-01 5.51877208e-02 1.91876981e-02
      2.96920203e-02 1.46831560e-03 2.48357896e-02 0. 1.67457871e-02
      3.10937483e-02 9.00534019e-02 8.81986842e-02 3.31147052e-02
      3.92204747e-02 5.74710662e-04 2.04843264e-02 1.55674774e-04
      1.26870759e-02 1.97393168e-02 1.04625396e-01 3.53493273e-01
      2.36528460e-02 1.69425253e-02 1.78568571e-05 3.06709278e-02
      2.24901587e-02 3.12580734e-01 1.58014476e-01 3.53493273e-01
      3.53493273e-01 7.98906025e-04 1.01812708e-03 1.20902748e-03
      5.00721559e-02 5.45749590e-02 3.53493273e-01 2.63615966e-01
      3.53493273e-01 6.86559528e-02 5.05775632e-03 3.98789672e-03 0.
      8.59353226e-03 4.83206502e-04 6.45255521e-02 4.85541634e-02
      6.63201213e-02 2.66979039e-01 5.27459852e-05 9.20320599e-05
      1.63045217e-04 4.90331603e-03 3.62404797e-04 8.23533311e-02
      8.39655623e-02 2.66171634e-01 3.32298577e-01 4.76813205e-02
      8.90087858e-02 5.47188893e-02 1.12501286e-01 1.32934051e-02
      7.89832249e-02 4.78337444e-02 3.32298577e-01 3.32298577e-01
      1.74207613e-01 3.32298577e-01 1.66404799e-01 3.32298577e-01
      2.84006237e-03 9.03472246e-04 3.08347121e-03 3.32298577e-01
      2.98119336e-01 1.66036859e-02 1.42497504e-02 9.58348997e-03
      5.33009134e-03 0. 1.03068892e-02 1.52853057e-02 2.94592649e-01
      1.82096630e-01 4.47439477e-02 5.07188067e-02 4.21243981e-02
      2.45659538e-02 1.95527056e-04 5.43407397e-04 7.47982471e-04
      1.57566920e-01</_>
    <_>
      1.83465958e-01 7.77955055e-02 7.49922022e-02 1.16278164e-01
      2.49725267e-01 2.57147802e-03 3.51891562e-04 5.74839360e-04
      1.01203918e-01 3.61371100e-01 1.22442566e-01 6.03450723e-02
      6.15154244e-02 1.29380584e-01 1.65714638e-03 1.36642295e-04
      8.20496352e-05 3.61371100e-01 8.85131434e-02 3.96824218e-02
      6.52751476e-02 8.87212679e-02 3.61371100e-01 3.05717601e-03
      4.11658802e-05 9.58065575e-05 4.86167446e-02 3.61371100e-01
      7.09540695e-02 1.00450777e-01 5.64422049e-02 3.61371100e-01
      1.32460007e-03 0. 1.36749395e-05 3.61371100e-01 3.47288400e-01
      2.07162816e-02 8.37449357e-03 1.13098626e-03 8.33704975e-03
      4.03980026e-04 2.64030477e-05 0. 3.47288400e-01 3.47288400e-01
      5.82885405e-05 1.74421526e-04 0. 7.61512760e-03 6.05336484e-03
      4.59696911e-03 1.02192499e-02 3.47288400e-01 3.47288400e-01
      1.32436389e-02 1.99176092e-02 2.44106282e-03 1.07957117e-01
      2.62479822e-04 0. 0. 3.47288400e-01 3.47288400e-01 0. 0.
      2.03136602e-04 1.32593110e-01 1.63413566e-02 1.14924228e-02
      2.55481265e-02 3.47288400e-01 3.46280426e-01 2.07266330e-05
      6.20219798e-05 7.17150906e-05 1.13079041e-01 3.01981028e-02
      1.39744297e-01 4.29412313e-02 3.46280426e-01 1.40063152e-01
      7.90980412e-05 2.36690568e-04 4.30290384e-04 3.04453105e-01
      2.89522093e-02 2.63971090e-01 3.38472500e-02 1.43341497e-01
      3.24084967e-01 0. 0. 6.87718450e-04 3.46280426e-01 7.29701519e-02
      9.23950151e-02 7.08236545e-02 3.46280426e-01 5.94535396e-02
      1.05464031e-04 3.15587386e-04 1.27909845e-03 3.46280426e-01
      5.75333200e-02 1.46015227e-01 3.48497443e-02 6.40853941e-02
      5.74800791e-03 2.50154966e-03 8.04356392e-03 4.91637271e-03
      4.44193453e-01 1.34127669e-03 0. 0. 3.67960986e-03 6.05892651e-02
      6.05267892e-03 2.01894287e-02 5.93970390e-03 4.44193453e-01
      1.74039695e-03 2.81381690e-05 0. 4.88736145e-02 2.45528333e-02
      5.01861505e-04 0. 3.51684564e-03 4.44193453e-01 6.47651851e-02
      5.72967306e-02 1.73192155e-02 3.88084091e-02 2.66546518e-01
      4.74788794e-05 4.83106152e-04 2.46070279e-03 4.44193453e-01
      4.89857122e-02 9.67221186e-02 3.10860351e-02 3.25534105e-01
      1.68845996e-01 3.13494005e-03 1.05771795e-02 1.91819004e-03
      3.21183711e-01 1.21955876e-03 2.50860670e-04 4.23263518e-05
      1.58900633e-01 1.82584554e-01 1.59359406e-05 7.46198566e-05
      4.85500460e-03 3.21183711e-01 1.16336606e-02 6.12912793e-03
      1.33128613e-02 1.93679512e-01 3.21183711e-01 2.69531505e-04
      1.77614507e-03 2.26315833e-03 3.09144348e-01 4.53191176e-02
      9.44348574e-02 4.66086939e-02 3.21183711e-01 3.21183711e-01
      2.21919883e-02 9.37169418e-03 3.09230257e-02 3.21183711e-01
      9.88269001e-02 1.43599704e-01 9.44611877e-02 3.21183711e-01
      4.17488925e-02 0. 0. 4.46604658e-03 4.92865711e-01 2.35958956e-02
      7.01553840e-03 1.56085351e-02 4.84434105e-02 4.53676051e-03
      1.45258582e-05 4.34667381e-05 1.83268962e-03 4.92865711e-01
      1.82498228e-02 2.87441467e-03 6.26112195e-03 5.60702942e-03
      8.22964460e-02 2.70351879e-02 1.92148108e-02 4.41720188e-02
      4.92865711e-01 2.56013274e-02 1.98054519e-02 1.56895462e-02
      6.80222437e-02 1.78027470e-02 1.24504277e-02 2.61881519e-02
      2.95946132e-02 4.92865711e-01 1.34065654e-02 6.98616728e-04
      2.33466009e-04 7.55257485e-03 9.34044495e-02 1.34191122e-02
      4.39076824e-03 6.94121839e-03 3.32750112e-01 2.00366706e-01
      1.89787805e-01 1.03425182e-01 1.89834073e-01 3.32750112e-01
      7.79253766e-02 2.41374113e-02 1.76985692e-02 3.32750112e-01
      1.19529024e-01 2.08226278e-01 1.30743951e-01 3.32750112e-01
      8.49758238e-02 1.75219886e-02 6.51383772e-03 7.86195975e-03
      7.84579962e-02 9.80443358e-02 1.14546031e-01 9.64266509e-02
      1.72567457e-01 3.32750112e-01 1.04372039e-01 3.54721770e-02
      3.91282625e-02 4.93105426e-02 5.96381500e-02 1.00948699e-01
      1.15322538e-01 3.32750112e-01 2.91565895e-01 2.25391462e-02
      7.38210557e-03 5.11271227e-03 6.74450547e-02 3.94178480e-02
      1.74419448e-01 6.93305358e-02 2.91565895e-01 2.91565895e-01
      2.91265324e-02 1.46694602e-02 2.01564077e-02 1.98156774e-01
      9.04857665e-02 2.51106620e-01 1.36217132e-01 2.91565895e-01
      2.91565895e-01 3.02924179e-02 1.05371233e-02 1.16378162e-02
      2.74411794e-02 1.63281914e-02 2.09675446e-01 7.85975829e-02
      2.76789099e-01 2.91565895e-01 2.12944113e-02 1.47619219e-02
      7.39029469e-03 4.87414598e-02 3.24149765e-02 2.80640751e-01
      1.33076936e-01 2.91565895e-01 3.24096620e-01 1.09195299e-01
      1.42828003e-01 1.09550707e-01 3.24096620e-01 3.52998152e-02
      5.78202233e-02 4.76701036e-02 3.11652005e-01 1.32479563e-01
      8.10281038e-02 2.01585859e-01 9.63030681e-02 3.24096620e-01
      9.04900953e-03 1.21582951e-03 9.87941748e-04 5.40196672e-02
      3.24096620e-01 1.04051076e-01 1.63468316e-01 8.74291509e-02
      1.40861735e-01 1.01075871e-02 5.07701710e-02 3.63555513e-02
      3.24096620e-01 1.97514892e-01 9.61086750e-02 2.14960888e-01
      9.95233878e-02 2.43355080e-01 2.72973161e-03 1.51818502e-03
      1.82779785e-03 1.16586253e-01</_>
    <_>
      3.19328874e-01 1.39767071e-02 4.09489162e-02 1.33069931e-03
      6.70128167e-02 2.21935008e-03 1.52121931e-01 5.07590808e-02
      3.19328874e-01 3.19328874e-01 7.41167984e-04 2.09260592e-03 0.
      8.45365284e-04 1.06216595e-03 9.50802490e-02 3.26935723e-02
      3.19328874e-01 3.19328874e-01 3.64966281e-02 1.04500778e-01
      1.94979168e-03 3.19328874e-01 3.32147884e-03 1.27556175e-01
      4.24358621e-02 3.19328874e-01 3.19328874e-01 4.56017163e-03
      1.28942626e-02 0. 2.61183493e-02 3.52799048e-04 7.11135790e-02
      2.45506577e-02 3.19328874e-01 3.50485772e-01 0. 0. 1.18698459e-04
      4.09126398e-04 8.44004026e-05 7.29651190e-03 2.65760487e-03
      3.50485772e-01 3.50485772e-01 2.40257829e-02 7.11542442e-02
      8.60603584e-04 6.88625500e-02 5.45546645e-05 2.66708776e-05
      5.27455471e-04 3.50485772e-01 3.50485772e-01 4.54716701e-06
      1.36068056e-05 0. 1.88461039e-04 1.81716096e-05 5.45032090e-03
      1.96243497e-03 3.50485772e-01 3.50485772e-01 1.41347395e-02
      4.30778787e-02 0. 3.52570340e-02 7.27395454e-05 3.55611628e-05
      2.10982165e-04 3.50485772e-01 2.97758669e-01 4.45437394e-02
      1.31132588e-01 7.40901916e-04 1.24540582e-01 6.93052833e-04
      3.10312770e-03 1.54016656e-03 2.97758669e-01 2.97758669e-01
      1.33274766e-02 3.78706343e-02 8.71475320e-04 1.24936141e-01
      1.40037853e-03 1.32058665e-01 4.20530103e-02 2.97758669e-01
      2.97758669e-01 2.43266188e-02 7.35609904e-02 0. 7.82890469e-02
      3.26739828e-04 1.68973990e-02 5.91649115e-03 2.97758669e-01
      2.97758669e-01 3.70993130e-02 1.09813236e-01 1.50632928e-03
      2.97758669e-01 1.54388498e-03 2.97758669e-01 1.15734965e-01
      2.97758669e-01 1.80925891e-01 2.42899898e-02 6.91362992e-02
      8.66769999e-03 5.52809417e-01 1.19317109e-02 6.55354634e-02
      2.12507565e-02 1.80202350e-01 3.73108327e-01 4.12687939e-03
      1.19540095e-02 6.76825119e-04 1.01984091e-01 1.02075434e-03
      5.57566760e-04 1.65203106e-04 3.71278644e-01 1.38927985e-03
      3.23429849e-04 1.20040984e-03 1.23488577e-02 5.52809417e-01
      1.58461239e-02 7.97927380e-03 3.21593927e-03 2.13071099e-03
      7.49975210e-04 2.70370831e-04 1.11916626e-03 1.46728032e-03
      1.40083626e-01 1.68415543e-03 1.35650719e-03 1.10172387e-03
      1.70159212e-03 4.98543710e-01 7.43667842e-05 3.31421121e-04
      2.22728369e-04 1.79633417e-03 0. 0. 0. 4.98543710e-01
      4.98543710e-01 1.39298639e-03 0. 0. 1.39284797e-03 6.83230464e-05
      3.34020115e-05 0. 4.98543710e-01 6.45729830e-04 2.97467104e-05
      2.34197447e-04 2.96971120e-04 3.88480327e-03 1.12945726e-03
      5.52171899e-04 3.19768675e-04 1.08382513e-03 1.49841104e-02
      1.11127617e-02 6.02546893e-03 3.15907202e-03 1.42559204e-02
      6.77674171e-03 3.31303012e-03 1.38274790e-03 1.24713155e-02
      2.93327063e-01 2.95545120e-04 0. 0. 6.26097098e-02 8.04913434e-05
      1.28404908e-02 4.27791616e-03 2.93124169e-01 1.77235350e-01
      9.49710310e-02 2.83317715e-01 2.61898781e-03 4.23161000e-01
      3.14065092e-03 4.23161000e-01 1.47159681e-01 1.73719421e-01
      5.70655055e-03 2.88384105e-03 2.48991000e-03 2.10171146e-03
      5.36945611e-02 2.71734456e-03 6.96390693e-04 4.06006788e-04
      5.90205379e-03 4.98433830e-03 2.75323372e-02 8.14462081e-02
      6.88145868e-03 4.23161000e-01 8.34058691e-03 3.00092757e-01
      9.67964083e-02 4.84597357e-03 5.69370314e-02 2.27929195e-05
      8.55740873e-05 6.44227816e-03 3.50836605e-01 7.38218613e-03
      1.21650040e-01 3.88829298e-02 5.71620129e-02 1.44552201e-01
      1.70946896e-05 7.43126220e-05 6.39869482e-04 5.18112555e-02
      6.09845971e-04 2.67947782e-02 9.26698092e-03 1.44767061e-01
      3.50836605e-01 1.48269421e-04 3.34689903e-05 3.50834592e-03
      3.50836605e-01 4.06609708e-03 3.50836605e-01 1.27297640e-01
      3.50836605e-01 3.50836605e-01 3.93694208e-04 2.12749612e-04
      4.11195535e-04 1.44818369e-02 1.12731155e-04 2.12752268e-01
      7.01815486e-02 3.50836605e-01 2.21064478e-01 0. 5.27900784e-06
      1.07980904e-05 1.08794542e-03 5.34303079e-04 1.41882119e-04
      6.45614782e-05 2.21105158e-01 2.05994606e-01 2.09654262e-03
      1.36724848e-03 1.13340653e-03 6.68219524e-03 3.20581696e-03
      4.57476340e-02 1.64868627e-02 2.05696478e-01 4.05747026e-01
      7.37143622e-04 7.56812224e-04 4.88652964e-04 1.25102967e-03
      4.08353313e-04 2.19667703e-01 7.26297572e-02 4.05747026e-01
      4.05747026e-01 1.34145760e-03 5.96519501e-04 7.26475671e-04
      6.57001650e-03 2.45011877e-03 2.97935486e-01 1.00718632e-01
      4.05747026e-01 7.33801797e-02 3.59173003e-03 5.87966852e-03
      2.23561283e-03 8.73685628e-03 2.27196724e-03 3.46209146e-02
      1.23511516e-02 7.33898804e-02 2.99284458e-02 3.08990236e-02
      9.23179686e-02 6.24551112e-03 3.55854273e-01 6.60616066e-03
      4.68469635e-02 1.49925388e-02 3.02802399e-02 3.55854273e-01
      8.98551475e-03 2.28677597e-02 1.40443514e-03 5.63712232e-03
      9.59075813e-04 2.03642592e-01 6.86496198e-02 3.55854273e-01
      3.55854273e-01 1.91634789e-01 3.55854273e-01 3.22223455e-03
      3.55854273e-01 3.48211615e-03 1.90669391e-02 6.29011355e-03
      3.55854273e-01</_>
    <_>
      1.03321210e-01 7.12069422e-02 1.49768233e-01 3.63111570e-02
      2.61720508e-01 1.88224844e-03 5.03437710e-04 6.54928619e-04
      6.64555505e-02 3.61070752e-01 1.30037203e-01 1.32049337e-01
      4.93545011e-02 1.75379530e-01 1.34723377e-03 9.85539053e-04
      2.79750995e-04 3.61070752e-01 4.52790037e-02 4.09597158e-02
      9.33609754e-02 4.59591821e-02 3.61070752e-01 2.41334899e-03
      1.47387545e-04 1.04923827e-04 2.70687118e-02 3.61070752e-01
      1.29177824e-01 1.00068159e-01 8.49935189e-02 3.61070752e-01
      1.21842290e-03 5.95627876e-04 3.81104292e-05 3.39638710e-01
      3.41731548e-01 2.81351581e-02 5.91010926e-03 7.18589500e-03
      9.85164475e-03 2.39554851e-04 3.58510850e-04 2.13498861e-05
      3.41731548e-01 3.41731548e-01 5.79944717e-05 1.73541557e-04 0.
      1.49899777e-02 2.72654259e-04 2.49120891e-02 9.97567270e-03
      3.41731548e-01 3.41731548e-01 4.04313430e-02 8.98203533e-03
      1.54387597e-02 1.43214568e-01 1.02008766e-04 2.20968053e-04 0.
      3.41731548e-01 3.41731548e-01 0. 0. 3.50231392e-04 1.89636245e-01
      1.79861742e-03 4.44561541e-02 3.98621289e-03 3.41731548e-01
      3.64302009e-01 3.40362858e-05 1.01849379e-04 8.65512411e-04
      1.92613572e-01 3.62134469e-03 1.84290886e-01 6.17644154e-02
      3.64302009e-01 8.09238851e-02 8.18294939e-05 2.44864088e-04
      2.16378109e-03 3.11163604e-01 4.54631820e-03 1.86779365e-01
      5.70190363e-02 8.53108689e-02 2.68444628e-01 1.81843370e-05
      5.44142567e-05 1.17087003e-03 3.64302009e-01 7.60433497e-03
      1.78039402e-01 2.45780107e-02 3.40290695e-01 3.28679830e-02
      1.09105975e-04 3.26485431e-04 1.78465678e-03 3.64302009e-01
      5.89822419e-03 1.33967146e-01 2.26127040e-02 4.46501337e-02
      2.72272271e-03 3.61780380e-03 3.30224843e-03 6.89222477e-03
      4.56752121e-01 5.92856144e-04 0. 0. 1.92186865e-03 4.80515957e-02
      2.11766027e-02 8.44640192e-03 1.65374037e-02 4.56752121e-01
      1.13066204e-03 2.78854626e-04 2.59422348e-04 4.36607637e-02
      1.48981092e-02 6.04979752e-04 0. 5.46402298e-03 4.56752121e-01
      4.08876836e-02 5.93884289e-02 2.08856557e-02 1.71610322e-02
      2.44923189e-01 4.48604638e-04 1.14468229e-03 6.71869330e-03
      4.56752121e-01 8.04905966e-02 7.39897490e-02 9.42464322e-02
      2.62304187e-01 1.46618769e-01 1.71478800e-02 4.27192962e-03
      7.64932437e-03 3.20309460e-01 9.83392005e-04 5.35221887e-04
      4.17351286e-04 1.43467471e-01 1.62879616e-01 2.44060629e-05
      1.92580686e-04 3.82999284e-03 3.20309460e-01 4.36169421e-03
      2.02818625e-02 1.44271296e-04 1.89068675e-01 3.20309460e-01
      9.07254056e-04 3.18015344e-03 3.05363652e-03 3.20309460e-01
      8.22038203e-02 5.26671186e-02 1.30434752e-01 3.20309460e-01
      3.20309460e-01 1.84617791e-04 3.27731185e-02 1.36902463e-02
      3.20309460e-01 1.29175067e-01 8.36875960e-02 1.39011711e-01
      3.20309460e-01 3.08956020e-02 2.27656733e-06 3.85687199e-05
      3.06359632e-03 4.94660050e-01 6.41978113e-03 2.25820765e-02
      2.40349691e-05 4.69011441e-02 2.20261631e-03 1.36593990e-05
      4.08739725e-05 1.31950434e-03 4.94660050e-01 4.42465348e-03
      9.08180047e-03 2.14316460e-05 4.82951989e-03 7.28247687e-02
      2.79728184e-03 4.64497097e-02 1.26535967e-02 4.94660050e-01
      2.51906104e-02 1.00772101e-02 1.97741836e-02 5.11323214e-02
      9.07034613e-03 3.82085727e-03 2.85955593e-02 7.10806437e-03
      4.94660050e-01 9.54062492e-03 6.56944409e-04 2.19539856e-04
      5.59024652e-03 4.92017567e-02 1.74744688e-02 1.64547330e-03
      8.19215737e-03 3.05965662e-01 7.59317279e-02 2.38201514e-01
      1.28124103e-01 7.56295100e-02 3.05965662e-01 1.36814579e-01
      7.64633249e-03 9.53623094e-03 3.05965662e-01 1.10807963e-01
      2.48838276e-01 2.76564300e-01 3.05965662e-01 3.60895470e-02
      2.62689684e-02 3.63756716e-03 2.82367086e-03 1.00495227e-01
      2.04719622e-02 1.41178638e-01 1.30552113e-01 7.66136423e-02
      3.05965662e-01 2.02610880e-01 1.61273666e-02 3.77279473e-03
      9.62986127e-02 1.54024567e-02 1.47969767e-01 2.23948449e-01
      3.05965662e-01 2.84849226e-01 4.65376340e-02 2.79647554e-03
      1.36976421e-03 7.90427700e-02 6.03232160e-02 1.59901187e-01
      1.26388341e-01 2.84849226e-01 2.84849226e-01 7.87027832e-03
      4.59050052e-02 1.73924994e-02 2.28844538e-01 1.21056199e-01
      2.11075753e-01 1.79800048e-01 2.84849226e-01 2.84197420e-01
      6.76119328e-02 4.70264722e-03 1.09818752e-03 3.64340134e-02
      1.71970148e-02 2.11579695e-01 1.01670362e-01 2.59170681e-01
      2.84849226e-01 1.91429164e-02 3.16771157e-02 2.06085704e-02
      4.90731150e-02 4.07018848e-02 2.72092670e-01 1.45551816e-01
      2.84849226e-01 3.43584985e-01 7.61531591e-02 2.13973612e-01
      7.87483379e-02 3.43584985e-01 4.43963818e-02 4.09641825e-02
      6.26990795e-02 2.71618366e-01 5.78648970e-02 8.16458017e-02
      1.63053080e-01 5.98894209e-02 3.43584985e-01 7.84670375e-03
      1.35964935e-03 9.01700230e-04 4.15706821e-02 3.43584985e-01
      1.17472425e-01 1.83108032e-01 1.06454588e-01 1.93806306e-01
      1.49349095e-02 4.63513695e-02 4.18586060e-02 3.43584985e-01
      1.02366999e-01 1.06603548e-01 1.56767130e-01 8.50221589e-02
      2.53732413e-01 3.09693138e-03 1.74155750e-03 1.55739987e-03
      8.24825242e-02</_>
    <_>
      1.27135590e-01 3.43546979e-02 5.08886725e-02 1.75887290e-02
      4.71714102e-02 9.50556598e-04 1.54713984e-03 1.66393002e-03
      4.72816229e-02 3.66287023e-01 3.74717489e-02 3.77591401e-02
      1.39554478e-02 2.12194566e-02 3.80222598e-04 2.02532462e-03
      1.84299203e-03 3.20798606e-01 2.15823412e-01 8.98596048e-02
      1.44354016e-01 1.38342500e-01 3.66287023e-01 3.93814780e-03
      1.05543050e-03 7.74232205e-04 7.97781125e-02 3.66287023e-01
      2.05776453e-01 1.42070502e-01 1.75674841e-01 3.66287023e-01
      1.57525879e-03 6.95248775e-04 5.40567620e-04 3.66287023e-01
      2.96102673e-01 2.45951652e-03 0. 2.32743492e-04 6.55563432e-04 0.
      4.57220565e-04 2.81796645e-04 2.76579410e-01 3.32687169e-01
      5.83875408e-05 1.74717803e-04 0. 5.44506358e-04 0. 0.
      3.49024264e-03 3.41111690e-01 3.84545058e-01 4.18006070e-02
      7.87667371e-03 1.65579356e-02 5.59128635e-02 0. 1.42397446e-04
      6.90870438e-05 3.84545058e-01 3.84545058e-01 9.73125680e-06
      2.91196320e-05 1.19934797e-04 7.96659216e-02 8.85608257e-04
      4.23651040e-02 8.73835757e-03 3.84545058e-01 2.88400888e-01
      2.68380914e-04 8.03097908e-04 0. 2.59633772e-02 1.37699964e-02
      3.68558019e-02 4.14944738e-02 3.69141906e-01 5.39225452e-02
      1.82606149e-04 5.46426920e-04 0. 6.57151788e-02 1.83599927e-02
      4.93423119e-02 4.25229147e-02 1.38514698e-01 3.69141906e-01
      7.76335364e-05 2.32308710e-04 8.30210280e-04 3.69141906e-01
      8.70086178e-02 2.41767496e-01 9.13176760e-02 3.69141906e-01
      9.87948105e-02 2.27854543e-04 6.81825390e-04 1.51136657e-03
      3.69141906e-01 1.12902150e-01 1.81353614e-01 8.95890892e-02
      2.43071541e-01 2.95381155e-02 1.99553147e-02 2.94005442e-02
      4.72514704e-02 3.64443570e-01 5.69681358e-03 2.28936016e-03
      2.29291338e-03 1.25205629e-02 2.48387486e-01 7.39894807e-02
      3.90593894e-02 7.01742619e-02 3.64443570e-01 1.20837782e-02
      5.78564079e-03 1.40996380e-02 2.06065372e-01 3.22668739e-02
      5.91537077e-03 1.15740855e-04 2.51051295e-03 3.64443570e-01
      9.70356688e-02 7.13252574e-02 7.67153054e-02 4.53065112e-02
      3.64443570e-01 4.91367728e-02 3.19101673e-04 3.14369705e-03
      3.64443570e-01 1.19122915e-01 8.37373063e-02 1.76817134e-01
      3.64443570e-01 2.88646847e-01 3.24984342e-02 6.92751911e-03
      1.37103908e-02 1.75886706e-01 3.31203197e-03 1.89575832e-03
      7.18272943e-03 2.88646847e-01 2.88646847e-01 2.86260271e-04
      7.15530041e-05 1.80997315e-03 2.39728406e-01 2.19112239e-03
      3.62171270e-02 2.70592957e-03 2.88646847e-01 2.88646847e-01
      3.00705712e-02 5.74575039e-04 6.79672579e-04 1.55270189e-01
      1.90518014e-02 1.40442640e-01 1.40200928e-01 2.88646847e-01
      2.88646847e-01 2.94081550e-02 2.06703488e-02 3.75307798e-02
      2.66760916e-01 2.68656295e-03 2.81068057e-01 1.47860155e-01
      2.88646847e-01 1.63539022e-01 5.35447944e-05 2.89793825e-05
      2.46376102e-03 4.51105744e-01 3.03378087e-02 9.12157744e-02
      1.38987554e-02 2.32965812e-01 1.63388290e-02 5.81065215e-05
      1.73876193e-04 1.16507942e-03 4.51105744e-01 3.65060791e-02
      5.00956513e-02 1.31756300e-02 3.88246924e-02 1.61627606e-01
      8.44761729e-02 9.94390920e-02 8.43485892e-02 4.51105744e-01
      6.69014081e-03 8.02928358e-02 3.24805267e-02 1.14723444e-01
      2.24759467e-02 6.05462566e-02 9.04815868e-02 4.07352448e-02
      4.51105744e-01 7.41039868e-03 1.39494948e-02 2.11098068e-03
      4.12631733e-03 9.68588516e-02 3.47307771e-02 9.38007317e-04
      2.28477805e-03 3.38578910e-01 1.50238350e-01 1.84931442e-01
      2.63464570e-01 1.68500051e-01 3.38578910e-01 2.78627276e-01
      8.16644228e-04 4.23008623e-03 3.38578910e-01 1.57618701e-01
      1.95928752e-01 3.38578910e-01 3.38578910e-01 2.67542303e-02
      1.61165968e-02 6.66643435e-04 0. 2.07698494e-02 1.36404776e-03
      2.83629671e-02 7.30930939e-02 6.39924556e-02 1.79396287e-01
      1.24377452e-01 6.55244628e-04 1.30932999e-03 2.98121721e-02
      1.27156801e-03 3.47722918e-02 1.19070075e-01 2.04452410e-01
      3.13738585e-01 8.89191851e-02 2.06005672e-04 1.03431102e-03
      4.98162992e-02 1.11558177e-02 2.53191590e-01 2.49121442e-01
      3.13738585e-01 3.13738585e-01 4.95619066e-02 3.69870923e-02
      4.29464728e-02 9.86027122e-02 2.14119605e-03 3.13738585e-01
      3.13738585e-01 3.13738585e-01 1.31342322e-01 3.89612280e-02
      4.69374172e-05 6.14727382e-04 1.32031813e-02 7.69627164e-04
      7.33829364e-02 1.05066054e-01 1.22056693e-01 2.98753530e-01
      1.40429214e-02 1.28033012e-02 6.03720639e-03 8.97610560e-03
      6.48216170e-04 8.13277215e-02 1.51931822e-01 2.90690392e-01
      3.07966560e-01 2.79532075e-01 3.02338243e-01 1.70444980e-01
      3.07966560e-01 4.24530823e-03 1.55257270e-01 9.61569846e-02
      3.07966560e-01 1.12696722e-01 2.28602439e-01 2.83487707e-01
      9.68536362e-02 3.07966560e-01 7.69833243e-03 3.54655012e-02
      6.07777201e-03 4.45618518e-02 3.07966560e-01 9.91272554e-02
      9.89303663e-02 3.45154069e-02 3.40108164e-02 6.12897100e-04
      1.87183078e-02 3.95855941e-02 2.84966975e-01 8.01563337e-02
      8.82062167e-02 8.90497416e-02 2.66812816e-02 5.09986207e-02
      1.81927939e-03 6.14739722e-03 1.89093966e-03 4.59913872e-02</_>
    <_>
      1.78292319e-01 1.07736297e-01 4.36009318e-02 1.81405991e-03
      8.48962739e-03 3.37764621e-04 1.65127509e-04 3.04403366e-04
      9.10115093e-02 3.25830132e-01 2.08715037e-01 7.79551826e-03
      7.31911801e-04 1.46814482e-03 4.17621282e-04 2.04168173e-04 0.
      1.94491118e-01 3.25830132e-01 3.25830132e-01 2.20292374e-01
      1.11666001e-01 3.25830132e-01 2.39579054e-03 9.28888156e-04
      4.05871135e-04 2.15055019e-01 3.25830132e-01 3.25830132e-01
      5.17154410e-02 2.83343401e-02 8.80280286e-02 5.28175326e-04
      1.72587825e-04 0. 3.25830132e-01 3.16274971e-01 1.78181365e-01
      1.73188731e-04 0. 9.30363080e-04 4.53638277e-05 2.21776281e-05 0.
      1.67502195e-01 3.16274971e-01 2.75321901e-01 5.96955942e-04 0.
      1.27740589e-03 0. 0. 0. 2.46826708e-01 3.16274971e-01
      3.16274971e-01 2.21904083e-05 0. 1.12028979e-03 7.56063719e-06
      3.69627082e-06 0. 3.16274971e-01 3.16274971e-01 3.16274971e-01 0.
      1.74324683e-04 8.09237361e-03 0. 0. 0. 3.16274971e-01
      3.25272053e-01 2.41597533e-01 4.94178035e-04 0. 2.54222900e-02
      6.60119927e-04 2.51738820e-02 1.34853469e-02 2.46498093e-01
      2.82907695e-01 1.46692738e-01 2.80988752e-04 1.46055152e-03
      2.53400743e-01 9.46502946e-03 1.78369761e-01 1.06377840e-01
      1.86478227e-01 3.25272053e-01 2.55003631e-01 0. 8.51102057e-04
      2.98497587e-01 4.73739905e-03 6.29347116e-02 5.39413793e-03
      2.63727516e-01 1.87645048e-01 8.29301178e-02 0. 1.78531231e-03
      3.25272053e-01 1.56888366e-02 1.66803777e-01 4.24094275e-02
      1.23826973e-01 1.21398143e-01 1.65096715e-01 9.66369957e-02
      9.32018161e-02 3.69806319e-01 1.88641355e-03 6.01821404e-04
      5.68137839e-05 5.61719649e-02 3.59601110e-01 2.23346472e-01
      3.28201726e-02 3.34376842e-02 2.84474105e-01 5.89602627e-04
      1.55174814e-04 2.12508203e-05 1.52996302e-01 8.99693742e-02
      4.22449373e-02 4.88139177e-03 1.07585005e-02 3.69806319e-01
      2.74070837e-02 3.26266177e-02 4.58058640e-02 5.14822938e-02
      3.69806319e-01 1.94940865e-01 3.28564364e-03 8.50541238e-03
      3.69806319e-01 1.87578574e-02 1.32374875e-02 4.65847664e-02
      2.07385376e-01 3.00196320e-01 2.12339386e-01 1.04447150e-04
      4.28718515e-04 8.17972515e-03 6.54415344e-05 2.57211632e-05
      8.59558168e-06 2.29706094e-01 3.00196320e-01 1.47443473e-01
      4.02476289e-04 1.81626028e-03 2.24850271e-02 1.66973463e-04
      1.10120585e-04 3.68004257e-05 1.90895170e-01 3.00196320e-01
      3.00196320e-01 3.84719227e-04 2.71768984e-03 2.31312215e-02
      3.79187539e-02 3.61165181e-02 1.06543697e-01 3.00196320e-01
      3.00196320e-01 3.00196320e-01 5.36634994e-04 3.96049721e-03
      4.85886708e-02 1.76598653e-01 6.32639751e-02 2.59317130e-01
      3.00196320e-01 9.33277085e-02 4.36284840e-02 9.79000397e-05
      8.68082512e-03 4.15819377e-01 6.15341822e-03 1.63343940e-02
      3.59867081e-05 5.36798351e-02 2.21979022e-02 7.54921092e-03 0.
      1.23589737e-02 4.15819377e-01 1.46324821e-02 2.17341483e-02
      1.95501751e-04 1.45511245e-02 3.26451421e-01 1.52033299e-01
      9.12668929e-02 4.18033674e-02 3.61809105e-01 4.41388935e-02
      7.57906865e-03 4.21063937e-02 1.72970980e-01 2.12610722e-01
      1.33263737e-01 2.77438223e-01 8.92120525e-02 4.15819377e-01
      1.15006594e-02 6.04424509e-04 9.18745704e-04 9.62345898e-02
      2.75303304e-01 9.62193534e-02 4.77862358e-02 4.12445189e-03
      3.01421463e-01 2.67722644e-02 1.21892028e-01 1.33655429e-01
      2.62272954e-01 3.01421463e-01 3.01421463e-01 6.24180026e-02
      2.13041506e-03 1.59728646e-01 1.64453238e-02 2.55695004e-02
      7.63248801e-02 3.01421463e-01 2.26011366e-01 5.44179976e-02
      7.54956231e-02 1.57112337e-03 1.05710104e-01 2.15349649e-03
      1.01718619e-01 1.16048306e-01 3.01421463e-01 3.01421463e-01
      2.28829652e-01 1.01515263e-01 2.38539345e-04 1.72953047e-02
      4.63719247e-04 1.58544537e-02 3.22142318e-02 2.59084284e-01
      3.01514834e-01 3.01514834e-01 8.98265839e-03 9.90272034e-04
      1.73272826e-02 2.58156992e-02 7.30976388e-02 1.46929324e-01
      3.01514834e-01 3.01514834e-01 3.01514834e-01 1.50658030e-04
      8.31555051e-04 3.28214541e-02 1.05988897e-01 1.01802103e-01
      2.60961980e-01 3.01514834e-01 2.80049205e-01 1.45223007e-01
      1.48420455e-02 9.46155269e-05 9.49870516e-03 2.92319153e-03
      4.97548729e-02 8.67116004e-02 1.83093399e-01 3.01514834e-01
      1.04235567e-01 2.51279969e-04 0. 7.92452320e-03 5.98710729e-03
      6.32314309e-02 1.05181411e-01 2.69208580e-01 3.03082168e-01
      3.03082168e-01 1.30814314e-01 4.06318083e-02 1.38710752e-01
      4.72489372e-02 1.80473123e-02 7.24819228e-02 3.03082168e-01
      3.03082168e-01 3.03082168e-01 3.03082168e-01 1.49077535e-01
      3.03082168e-01 3.13085644e-03 6.99172437e-04 6.83491351e-04
      1.95584521e-01 3.03082168e-01 1.91576689e-01 1.79230552e-02
      7.88135082e-03 5.56134013e-03 1.52721000e-03 9.42382775e-03
      1.75824054e-02 2.06045136e-01 2.21731558e-01 1.26454368e-01
      5.75961918e-02 4.65196744e-02 1.43123679e-02 1.79926472e-04
      2.98341853e-04 9.97006064e-05 7.05997795e-02</_>
    <_>
      2.26260737e-01 1.74575914e-02 5.33077568e-02 3.79776524e-04
      1.27179176e-01 6.88640575e-04 1.13544927e-03 3.25865665e-04
      2.26907134e-01 3.11659098e-01 3.10045341e-03 9.29667801e-03 0.
      8.42961203e-03 1.55066038e-04 2.09304199e-04 2.95402278e-05
      3.11659098e-01 2.84487486e-01 8.30230489e-02 2.57284522e-01
      3.07411561e-03 3.11659098e-01 3.56936199e-03 1.80480052e-02
      6.40141219e-03 2.86640197e-01 3.11659098e-01 9.31529999e-02
      2.87047684e-01 8.18103203e-04 1.26387581e-01 1.07645255e-03
      2.04129651e-01 6.13734536e-02 3.11659098e-01 3.35258424e-01
      2.15326916e-04 3.55234588e-05 0. 2.82041961e-04 0. 0. 0.
      3.35258424e-01 3.35258424e-01 1.52591689e-04 0. 6.64870531e-05
      3.20234190e-04 0. 1.23434811e-05 3.92479851e-05 3.35258424e-01
      3.35258424e-01 5.90098388e-02 1.74221218e-01 4.43773548e-04
      1.85094459e-03 0. 1.32937178e-01 3.89209129e-02 3.35258424e-01
      3.35258424e-01 1.68295000e-02 4.67362627e-02 1.11830339e-03
      1.36790285e-03 0. 1.94612980e-01 6.39804155e-02 3.35258424e-01
      3.27334493e-01 3.49151233e-05 6.78617725e-05 3.07554263e-04
      6.17913494e-04 0. 5.54751714e-05 1.76391797e-04 3.27334493e-01
      3.27334493e-01 8.72878154e-05 9.04823464e-05 2.52577389e-04
      2.30885930e-02 9.39292440e-05 2.39916742e-02 8.39496590e-03
      3.27334493e-01 3.27334493e-01 5.30235120e-04 2.93424528e-04
      1.61552953e-03 1.16450721e-02 0. 1.34198949e-01 4.47188281e-02
      3.27334493e-01 3.27334493e-01 5.42669732e-04 2.26205899e-04
      1.28980039e-03 3.27071965e-01 0. 1.00374453e-01 3.41459401e-02
      3.27334493e-01 5.25843464e-02 5.89972325e-02 1.78456813e-01
      6.18738495e-03 4.68701571e-01 7.55374087e-03 1.31510384e-02
      4.62042680e-03 5.32542691e-02 2.08418518e-01 7.60627612e-02
      2.29835406e-01 2.39320076e-03 3.42610329e-01 2.46286765e-03
      1.53640270e-01 4.61950079e-02 2.04968616e-01 1.06429635e-02
      4.45240969e-03 1.16360625e-02 1.30210128e-02 4.68701571e-01
      1.47588095e-02 1.57921016e-02 4.53101471e-03 1.13318544e-02
      5.66458479e-02 3.92299844e-03 8.75118747e-03 5.49314450e-03
      4.68701571e-01 7.22480007e-03 1.24606406e-02 3.60338017e-03
      5.70777245e-02 3.49271208e-01 1.26931891e-01 3.49271208e-01
      3.30141513e-03 9.46913194e-03 2.19784342e-05 2.82456875e-01
      8.27220082e-02 3.49271208e-01 3.49271208e-01 4.00745794e-02
      1.01471148e-01 5.80314407e-03 9.36819147e-03 0. 3.49271208e-01
      1.35851607e-01 3.49271208e-01 1.62630036e-01 2.16664304e-03
      1.52404816e-03 2.13044439e-03 7.95605592e-03 8.14327446e-04
      9.39957041e-04 3.13333177e-04 1.60898626e-01 1.98035896e-01
      3.91769921e-03 2.26162793e-03 3.12909274e-03 9.97387245e-03 0.
      3.53891606e-04 9.57743498e-04 1.98718742e-01 4.14962590e-01
      2.11139699e-03 1.11566123e-03 1.42710353e-03 6.00855947e-02
      1.36772753e-04 1.25801772e-01 4.18919176e-02 4.14962590e-01
      3.43686759e-01 8.41987610e-04 5.67144132e-04 1.65585126e-03
      4.14962590e-01 8.20636109e-04 1.12801440e-01 3.78608145e-02
      3.39354515e-01 9.20543522e-02 3.12344008e-03 5.39275538e-03
      8.62893823e-04 1.18563175e-01 2.64529343e-04 3.23293940e-03
      1.57914916e-03 9.22180265e-02 5.65088801e-02 8.66174884e-03
      2.48426683e-02 2.20058998e-03 4.14962590e-01 1.58717541e-03
      1.82106346e-02 6.16880087e-03 5.55450469e-02 9.46719125e-02
      2.33307685e-04 5.23396011e-04 7.66140316e-03 3.45749199e-01
      1.03568109e-02 6.41681328e-02 1.90152340e-02 9.61930901e-02
      3.22010756e-01 1.37006777e-04 7.20106327e-05 2.79113534e-03
      3.01860452e-01 5.50254155e-03 4.11288328e-02 1.20157618e-02
      3.23895484e-01 2.66679227e-01 2.25897096e-02 6.28916398e-02
      2.78553623e-03 3.45749199e-01 4.59513953e-03 1.79284140e-01
      5.80336116e-02 2.65635073e-01 3.45749199e-01 1.66827794e-02
      4.68708724e-02 6.36938086e-04 8.19599405e-02 1.42125762e-03
      5.26262075e-02 1.64866019e-02 3.45749199e-01 3.44841003e-01
      6.82162063e-05 3.32959171e-05 5.11568760e-05 5.48767159e-04
      2.00607712e-04 4.27525956e-05 4.44323341e-05 3.44841003e-01
      3.44841003e-01 3.05579997e-05 4.83686708e-05 3.46624474e-05
      4.44798614e-04 0. 0. 7.09523956e-05 3.44841003e-01 3.44841003e-01
      2.05351331e-04 1.23653444e-04 2.52930244e-04 9.10449482e-04 0.
      9.51362252e-02 3.23483646e-02 3.44841003e-01 3.44841003e-01
      1.75080542e-02 5.29678129e-02 0. 4.42271092e-04 0. 1.69347584e-01
      5.78129031e-02 3.44841003e-01 3.12720835e-01 4.25812230e-03
      1.26232356e-02 1.80657909e-04 4.88074608e-02 1.64496552e-04 0.
      9.00694795e-05 3.12720835e-01 2.27341026e-01 2.69823931e-02
      8.07227045e-02 8.24955350e-04 3.12720835e-01 9.86978877e-04 0.
      1.50115802e-05 2.27361605e-01 3.12720835e-01 5.29149920e-02
      1.58961385e-01 0. 7.51423603e-03 1.31749417e-04 4.70851883e-02
      1.60256941e-02 3.12720835e-01 3.12720835e-01 8.92821178e-02
      2.66774178e-01 1.85307901e-04 2.27891803e-01 5.33631770e-04
      1.83035910e-01 6.28984198e-02 3.12720835e-01</_>
    <_>
      5.88189922e-02 8.38371292e-02 2.24293202e-01 3.53792645e-02
      1.14143938e-01 2.47044815e-03 9.53185197e-04 1.31696498e-03
      3.34521458e-02 2.85467863e-01 1.49448410e-01 2.85467863e-01
      2.39768103e-02 6.65224567e-02 3.18639237e-03 1.58498564e-03
      1.02644844e-03 2.85467863e-01 3.71886753e-02 7.35853538e-02
      2.30774581e-01 2.85467863e-01 2.85467863e-01 3.53038660e-03
      1.37019483e-03 7.25748658e-04 1.75840296e-02 2.85467863e-01
      1.35226190e-01 2.85467863e-01 2.85467863e-01 2.85467863e-01
      3.16061429e-03 6.67890534e-04 2.73737212e-04 2.85467863e-01
      3.47862065e-01 3.12863514e-02 7.49507099e-02 3.92204674e-04
      3.81078781e-03 9.45580075e-04 7.12277077e-04 2.63546855e-04
      3.47862065e-01 3.47862065e-01 3.53439391e-04 8.18412984e-04
      6.11242256e-04 1.35547796e-03 5.83362053e-05 1.81390409e-04
      3.04278731e-03 3.47862065e-01 3.47862065e-01 3.16994898e-02
      8.00180510e-02 4.71803397e-02 1.05693050e-01 3.20496183e-04
      1.50000007e-04 4.91028441e-05 3.47862065e-01 3.47862065e-01
      5.76620281e-04 5.56037994e-04 6.09246921e-03 2.80707460e-02
      1.08431916e-04 2.56838161e-04 1.43072773e-02 3.47862065e-01
      2.95121163e-01 7.58696289e-04 8.75444966e-04 1.70356478e-03
      7.37137860e-03 1.07139479e-02 5.05555272e-02 3.77366692e-02
      2.95121163e-01 2.56779522e-01 2.16726749e-03 9.74716910e-04
      3.85972522e-02 1.18702605e-01 7.07085505e-02 2.77152449e-01
      1.58266887e-01 2.86091626e-01 2.95121163e-01 1.20655622e-03
      1.27290804e-02 1.22409716e-01 2.02012658e-01 6.34086207e-02
      2.03912146e-02 7.41739497e-02 2.95121163e-01 1.61126867e-01
      1.04435824e-03 5.26482500e-02 2.95121163e-01 2.95121163e-01
      1.51039690e-01 1.55912042e-01 1.35137841e-01 2.00184181e-01
      1.85172621e-03 5.65253850e-03 6.60137013e-02 3.35348427e-01
      3.35348427e-01 6.43010484e-03 4.56695940e-04 3.26278183e-04
      2.17904383e-03 9.50665921e-02 1.80727579e-02 1.04762033e-01
      3.35348427e-01 3.35348427e-01 4.08358453e-03 9.08724105e-05
      2.02116527e-04 5.70534766e-02 1.89323910e-02 2.34372070e-04
      6.28647581e-02 3.35348427e-01 3.35348427e-01 2.88839322e-02
      1.18588060e-02 2.33561788e-02 1.86497215e-02 1.68779448e-01
      1.54342561e-04 4.20762151e-02 3.35348427e-01 3.35348427e-01
      2.10619625e-02 1.26888789e-02 5.70273362e-02 1.69226661e-01
      2.89979935e-01 1.59974154e-02 6.44353181e-02 1.89387828e-01
      2.89979935e-01 7.96960900e-04 1.21071236e-04 1.38101741e-05
      2.81046152e-01 2.89979935e-01 2.60904012e-03 1.12757143e-02
      8.33004415e-02 1.23616807e-01 1.41674140e-03 5.38145192e-04
      1.26688462e-02 2.89979935e-01 2.89979935e-01 2.18233210e-04
      1.74152479e-02 1.66790128e-01 2.50556231e-01 5.59362862e-03
      6.36239816e-03 3.04501243e-02 2.89979935e-01 2.89979935e-01
      1.98617410e-02 7.65160993e-02 1.60607025e-01 2.42194831e-01
      3.36220209e-03 1.35604979e-03 6.07121154e-04 2.89979935e-01
      1.12627074e-01 1.60541188e-03 2.58599650e-02 2.62206018e-01
      3.44875932e-01 2.60252990e-02 1.25208870e-04 2.34851465e-02
      1.22179829e-01 2.66100988e-02 5.44337148e-04 7.20557496e-02
      3.44875932e-01 3.44875932e-01 4.36832048e-02 3.26807261e-03
      1.79306157e-02 3.42243761e-02 1.24113694e-01 2.13687327e-02
      1.07012004e-01 3.44875932e-01 3.44875932e-01 5.61905280e-03
      7.09014246e-04 6.22598978e-04 1.20121509e-01 1.24571016e-02
      1.37470746e-02 1.18472822e-01 3.44875932e-01 3.44875932e-01
      1.02508627e-02 5.07699675e-04 6.00995845e-04 1.18965553e-02
      9.34552923e-02 6.30735885e-04 3.53639685e-02 3.01637203e-01
      3.01637203e-01 7.14106709e-02 1.82344586e-01 1.37495488e-01
      9.22709852e-02 3.01637203e-01 4.15929913e-04 8.18495359e-03
      1.70444593e-01 2.85203099e-01 3.45228612e-02 7.82650560e-02
      1.28293172e-01 3.01637203e-01 2.00787365e-01 4.35547641e-04
      2.88725155e-03 4.23831977e-02 1.18161440e-01 4.07535993e-02
      2.98994571e-01 1.70400783e-01 2.02573031e-01 3.01637203e-01
      2.96674116e-04 5.79998246e-04 7.09255040e-03 1.47827212e-02
      1.02296527e-02 1.27936900e-01 8.44526514e-02 3.01637203e-01
      3.50454628e-01 1.32003232e-04 9.49043315e-04 1.91457383e-02
      3.78697403e-02 3.19227413e-03 3.84965655e-03 1.88151486e-02
      3.50454628e-01 3.50454628e-01 1.83738340e-02 5.70889860e-02
      2.50851475e-02 6.01118319e-02 5.17131703e-04 6.11531606e-04
      6.40566635e-04 3.50454628e-01 3.50454628e-01 9.07310023e-05
      2.71500729e-04 0. 1.81591255e-03 5.32045611e-04 6.33168849e-04
      3.16771725e-03 3.50454628e-01 3.50454628e-01 2.11251248e-02
      5.87578118e-02 2.25525742e-04 4.08241153e-03 0. 3.10418662e-04
      5.45768358e-04 3.50454628e-01 2.79154539e-01 9.29989591e-02
      2.79154539e-01 1.72815859e-01 2.79154539e-01 3.82551551e-03
      1.74109219e-03 1.74616894e-03 2.79154539e-01 7.96022266e-02
      1.03648618e-01 2.79154539e-01 2.79154539e-01 2.79154539e-01
      8.31340626e-03 1.29616237e-03 1.14149658e-03 6.93443790e-02
      2.79154539e-01 1.14100158e-01 2.79154539e-01 8.46374221e-03
      4.49780449e-02 7.97102286e-04 1.37105922e-03 1.83462154e-03
      2.79154539e-01 1.24166645e-01 1.23710148e-01 2.79154539e-01
      4.29751612e-02 1.41838014e-01 2.84060161e-03 9.97078489e-04
      1.20715471e-03 1.08162202e-01</_>
    <_>
      2.30356306e-01 4.40868810e-02 1.37150779e-01 2.14365296e-04
      3.33645344e-02 1.33510435e-03 3.53818003e-04 8.67618306e-04
      2.34891027e-01 3.21921855e-01 7.15036830e-03 2.19272356e-02
      1.19685319e-05 1.56199501e-03 1.43540834e-04 4.38831084e-05
      3.82320513e-06 3.21921855e-01 3.19927126e-01 1.32289305e-01
      3.21921855e-01 7.54811149e-03 3.21921855e-01 7.58776348e-03
      1.40791442e-02 5.55533124e-03 3.21921855e-01 3.21921855e-01
      4.10320833e-02 1.25967145e-01 9.86926840e-04 5.40051758e-02
      1.80685800e-03 5.55025134e-03 2.23419233e-03 3.21921855e-01
      3.52929443e-01 0. 0. 0. 2.04143507e-04 0. 0. 0. 3.52929443e-01
      3.52929443e-01 0. 0. 0. 0. 0. 0. 0. 3.52929443e-01 3.52929443e-01
      0. 0. 0. 3.28146532e-04 0. 0. 0. 3.52929443e-01 3.52929443e-01 0.
      0. 0. 0. 0. 0. 0. 3.52929443e-01 3.30160767e-01 0. 0. 0.
      3.08837407e-05 0. 0. 0. 3.30160767e-01 3.30160767e-01 0. 0.
      2.72434065e-03 2.52834279e-02 9.25664324e-04 3.33646946e-02
      1.12286620e-02 3.30160767e-01 3.30160767e-01 0. 0. 0.
      1.05365027e-04 0. 0. 0. 3.30160767e-01 3.30160767e-01 0. 0.
      7.95389619e-03 3.30160767e-01 3.80588998e-03 1.11472189e-01
      3.54304165e-02 3.30160767e-01 1.31955206e-01 8.63870233e-02
      2.57922500e-01 1.88261084e-02 4.79744434e-01 1.69395413e-02
      8.16646740e-02 2.95935068e-02 1.32262871e-01 2.90069640e-01
      3.40928622e-02 1.02947034e-01 4.13497025e-03 2.41348013e-01
      3.99908051e-03 3.26453969e-02 1.18841724e-02 2.89622545e-01
      7.33287036e-02 3.70691679e-02 1.04136251e-01 1.92464516e-02
      4.79744434e-01 2.06243265e-02 6.21182509e-02 2.26545744e-02
      7.65376389e-02 5.49770221e-02 1.47215864e-02 4.15458903e-02
      4.77263937e-03 3.75324517e-01 4.14793193e-03 2.51849592e-02
      9.05782823e-03 5.77748381e-02 4.97282177e-01 0. 4.78601287e-05
      9.78971148e-05 4.27380092e-02 0. 0. 7.81748604e-05 4.97282177e-01
      4.97282177e-01 0. 2.87160656e-04 5.87382412e-04 7.36756367e-04 0.
      6.48403482e-04 2.16685628e-04 4.97282177e-01 8.74515041e-04
      4.89942940e-05 4.33770299e-04 5.87382412e-04 6.05388433e-02
      1.35205235e-04 6.60996084e-05 8.84586247e-04 1.78991992e-03
      1.03764823e-02 4.36760893e-04 3.02991667e-03 3.52429273e-03
      8.12768377e-03 0. 4.74051572e-03 5.71909407e-03 1.12332813e-02
      3.49748760e-01 1.60769832e-05 8.56437910e-05 7.67779056e-05
      3.88528395e-04 0. 1.95403438e-04 6.53005627e-05 3.49748760e-01
      3.00194442e-01 9.64618594e-05 2.88650655e-04 1.42144300e-02
      5.30722260e-01 1.54605005e-02 8.71793330e-02 2.74521951e-02
      2.95748800e-01 4.59091878e-03 4.05525585e-04 1.43869547e-03
      4.60667216e-04 9.33631498e-04 0. 1.64219318e-03 1.08927349e-03
      4.70291218e-03 3.10800620e-03 5.69974480e-04 1.70557690e-03
      9.15521104e-03 5.30722260e-01 1.35302097e-02 3.69606249e-04
      1.23516249e-04 3.10800620e-03 4.60937694e-02 7.74031924e-03
      1.99984722e-02 1.03717623e-02 3.81024450e-01 1.44688515e-02
      1.17857583e-01 3.54195125e-02 4.62329350e-02 1.41745225e-01
      3.23449308e-03 7.99064804e-03 1.58649054e-03 1.88071549e-01
      3.94816091e-03 5.80262430e-02 1.77721754e-02 1.42248318e-01
      3.29009086e-01 2.45744339e-03 2.46518268e-03 4.73772828e-03
      3.81024450e-01 8.67844932e-03 2.75594383e-01 8.60547572e-02
      3.23771209e-01 3.81024450e-01 4.93889116e-03 1.24131907e-02
      5.99893683e-04 5.94791733e-02 3.22071649e-03 1.19171999e-01
      3.67050059e-02 3.81024450e-01 1.81639925e-01 2.58126820e-05
      1.04487706e-04 5.57318854e-05 3.38138035e-03 1.26139028e-04
      1.16231320e-04 1.44494319e-04 1.82126716e-01 2.13826343e-01
      1.78867936e-04 6.98718650e-04 3.34391108e-04 2.24312558e-03 0.
      1.14438776e-03 1.07716373e-03 2.14070544e-01 4.47108716e-01
      3.94499786e-02 1.16127521e-01 0. 4.35217191e-03 3.13820114e-04
      4.75787296e-04 7.39574607e-05 4.47108716e-01 4.47108716e-01
      3.99556682e-02 1.17607452e-01 7.06677383e-05 3.18434276e-03 0.
      8.22658390e-02 3.01886797e-02 4.47108716e-01 1.43792123e-01
      1.97146874e-04 6.44418877e-04 1.11441768e-04 5.63668145e-04 0.
      4.17858083e-03 1.56198326e-03 1.42208740e-01 1.08325809e-01
      1.73804612e-04 5.20088070e-04 1.03989721e-03 3.84941339e-01
      1.77614042e-03 1.93106886e-02 6.05755532e-03 1.08062670e-01
      3.84941339e-01 2.70002289e-03 8.59078392e-03 2.31572732e-04
      1.34181406e-03 0. 1.28450051e-01 4.58342656e-02 3.84941339e-01
      3.84941339e-01 8.41488317e-03 2.46177632e-02 1.36477058e-03
      3.84941339e-01 1.44626887e-03 1.44191593e-01 4.66230586e-02
      3.84941339e-01</_>
    <_>
      2.03692660e-01 1.34429157e-01 2.42478892e-01 6.87615350e-02
      1.30890384e-01 3.61549854e-02 1.95001985e-03 2.62686634e-03
      1.81535587e-01 3.06937188e-01 6.74782246e-02 1.02748014e-01
      2.01371368e-02 1.35687701e-02 4.19166358e-03 1.22833462e-03
      9.87711479e-04 3.06937188e-01 1.28452107e-01 1.11053400e-01
      1.36475801e-01 1.31996661e-01 3.06937188e-01 3.06937188e-01
      4.47745733e-02 2.67933914e-03 1.01355352e-01 3.06937188e-01
      1.09283723e-01 4.77033295e-02 9.51653272e-02 3.06937188e-01
      2.15275198e-01 2.15008799e-02 1.13855687e-03 3.06937188e-01
      3.49492043e-01 3.14223440e-03 3.62383435e-04 2.14875326e-03
      1.26516144e-03 3.73741204e-04 3.22694505e-05 2.48054304e-04
      3.49492043e-01 3.49492043e-01 2.67743785e-03 2.71825586e-03
      1.44400599e-03 5.18743042e-03 2.80305860e-04 5.30573018e-02
      2.25994550e-02 3.49492043e-01 3.49492043e-01 1.73359383e-02
      1.27894464e-05 1.08635752e-02 4.06461023e-02 2.36813854e-02
      1.98496180e-03 2.00468465e-04 3.49492043e-01 3.49492043e-01
      2.11873720e-03 1.53052818e-03 4.75273613e-04 8.92368630e-02
      3.64753753e-02 5.92099503e-02 2.28645019e-02 3.49492043e-01
      2.81326503e-01 4.36405279e-03 2.80331774e-03 1.81672396e-03
      4.09684107e-02 1.35804228e-02 2.76123554e-01 1.11582935e-01
      2.81326503e-01 6.09860457e-02 2.52105249e-03 2.36001960e-03
      1.91137742e-03 1.39426753e-01 3.98446582e-02 2.81326503e-01
      1.11905769e-01 1.07339673e-01 2.81326503e-01 3.39563750e-03
      2.11900962e-03 2.64505716e-03 2.81326503e-01 2.07149521e-01
      2.74379343e-01 9.89466906e-02 2.81326503e-01 3.77644040e-02
      1.88169349e-03 2.19848705e-03 3.26606981e-03 2.81326503e-01
      2.81326503e-01 2.81326503e-01 9.57816988e-02 8.28523487e-02
      1.87237505e-02 1.21985944e-02 2.90000485e-03 3.46411429e-02
      3.36010188e-01 3.36010188e-01 5.44715710e-02 1.18088233e-03
      1.42389694e-02 1.28433093e-01 2.99198274e-02 6.20023638e-04
      3.63028049e-02 3.36010188e-01 3.36010188e-01 3.81596871e-02
      3.99548531e-04 1.16370603e-01 3.69227538e-03 4.68206214e-04
      2.89739983e-04 6.07068604e-03 3.36010188e-01 3.36010188e-01
      8.26089978e-02 9.57990438e-03 3.24101280e-03 1.17376797e-01
      1.05788844e-04 3.16560530e-04 3.60906031e-03 3.36010188e-01
      3.36010188e-01 1.38443157e-01 2.60410327e-02 1.19254448e-01
      2.91554004e-01 1.60144214e-02 1.15916191e-04 1.05055822e-02
      1.96207821e-01 1.40469626e-01 1.41666261e-02 5.61197994e-05
      2.91554004e-01 2.91554004e-01 1.64300739e-03 2.36906041e-03
      3.65114165e-03 2.49878451e-01 1.52167559e-01 5.33807650e-02
      1.28991595e-02 2.91554004e-01 2.91554004e-01 5.32129925e-05
      1.59233547e-04 7.35513750e-04 2.91554004e-01 1.97830990e-01
      8.78752321e-02 2.10834816e-02 2.91554004e-01 2.91554004e-01
      2.62404103e-02 8.07266310e-03 5.73511468e-03 1.52956456e-01
      1.13663867e-01 1.47598386e-02 6.99166732e-04 2.91554004e-01
      6.46566749e-02 6.08592294e-04 1.20402302e-03 4.71695513e-03
      3.44205797e-01 3.17888528e-01 7.87142962e-02 1.42721320e-02
      9.66426283e-02 4.74566827e-03 1.28054715e-04 6.52614282e-04
      4.52508358e-03 3.44205797e-01 3.44205797e-01 8.68356004e-02
      8.36874638e-03 1.02776811e-02 1.62124917e-01 4.58328575e-02
      1.13361934e-02 1.94255095e-02 3.44205797e-01 2.99367309e-01
      2.61784717e-02 3.93232069e-04 1.61987022e-01 3.56062055e-02
      3.38039771e-02 1.75047759e-02 3.73728909e-02 3.44205797e-01
      3.44205797e-01 7.78705925e-02 2.60088942e-04 3.63866203e-02
      3.46891917e-02 3.92600428e-04 6.13136275e-04 4.23638569e-03
      2.82108396e-01 2.82108396e-01 2.48485774e-01 7.46021494e-02
      3.98117341e-02 2.82108396e-01 3.69756774e-04 1.16201304e-03
      2.31898273e-03 2.82108396e-01 2.62613952e-01 2.82108396e-01
      1.22757927e-01 2.82108396e-01 6.18336461e-02 2.13391511e-04
      7.71894294e-04 4.25766862e-04 1.17018409e-01 4.27595116e-02
      2.59746283e-01 8.83852690e-02 7.03245699e-02 2.82108396e-01
      3.60488048e-04 1.41208316e-03 7.07398227e-04 7.16291517e-02
      1.92687381e-02 2.82108396e-01 1.47236153e-01 2.82108396e-01
      3.49209934e-01 7.20940880e-05 2.26789838e-04 1.98559646e-04
      7.65376687e-02 2.91360971e-02 7.38080218e-02 2.42874529e-02
      3.49209934e-01 3.49209934e-01 1.56716648e-02 3.64794908e-03
      5.85371163e-04 2.24932060e-02 7.94049352e-03 5.69087570e-04
      1.72122658e-04 3.49209934e-01 3.49209934e-01 7.03413389e-05
      2.76831037e-04 1.35704002e-04 3.45537649e-03 3.90415080e-04
      8.10595229e-02 2.75881980e-02 3.49209934e-01 3.49209934e-01
      2.82719824e-03 7.10473978e-04 0. 2.18016724e-03 0. 0.
      7.56674126e-05 3.49209934e-01 2.89953560e-01 8.75302255e-02
      4.12736796e-02 2.10048035e-02 1.94091856e-01 9.23211798e-02
      2.23965710e-03 9.52939910e-04 2.89953560e-01 1.48944989e-01
      1.66510850e-01 2.15243086e-01 7.84097090e-02 2.89953560e-01
      2.89953560e-01 4.47453149e-02 1.51168148e-03 1.49194181e-01
      2.89953560e-01 4.65904176e-02 6.45895004e-02 3.13357566e-03
      1.08115403e-02 2.67396739e-04 2.79738277e-04 9.25651577e-04
      2.89953560e-01 2.89953560e-01 1.96897283e-01 2.89953560e-01
      3.95962074e-02 1.04324751e-01 4.85116169e-02 4.16612998e-03
      2.49927584e-03 2.85993844e-01</_>
    <_>
      3.20813984e-01 2.50864681e-02 7.05132186e-02 1.65606197e-03
      7.15451166e-02 3.92262870e-03 1.15565233e-01 3.88095602e-02
      3.20813984e-01 3.20813984e-01 2.51174103e-02 7.08344430e-02
      6.35114848e-04 1.28508790e-03 9.04269808e-04 4.19149064e-02
      1.49784405e-02 3.20813984e-01 3.20813984e-01 4.62679453e-02
      1.29767492e-01 3.59137193e-03 3.20813984e-01 6.01223437e-03
      1.01463780e-01 3.35814469e-02 3.20813984e-01 3.20813984e-01
      2.35782675e-02 6.56472445e-02 8.67540482e-04 2.81675048e-02
      5.09256381e-04 3.20672877e-02 1.12929121e-02 3.20813984e-01
      3.51437658e-01 5.88383432e-03 1.65148415e-02 1.70239931e-04
      5.61402820e-04 3.68993606e-05 1.84431468e-04 3.49226648e-05
      3.51437658e-01 3.51437658e-01 2.79462896e-02 7.77847692e-02
      7.60836178e-04 3.46538541e-03 3.66296590e-04 4.40330856e-04
      4.66153491e-04 3.51437658e-01 3.51437658e-01 4.44651674e-03
      1.24533568e-02 0. 5.10697253e-04 1.47597411e-05 1.49595930e-04
      3.93079972e-05 3.51437658e-01 3.51437658e-01 1.11567322e-02
      3.11075784e-02 0. 1.08219695e-03 4.88395395e-04 2.38768451e-04
      6.31411312e-05 3.51437658e-01 3.17212909e-01 5.04066050e-02
      1.40093759e-01 1.64336839e-03 3.72331776e-03 9.59784375e-04
      3.41802300e-03 1.32832560e-03 3.17212909e-01 3.17212909e-01
      1.62855815e-02 4.19504829e-02 3.70427407e-03 1.09341733e-01
      2.91561079e-03 1.18612953e-01 4.12545949e-02 3.17212909e-01
      3.17212909e-01 2.02666037e-02 5.61219938e-02 3.42516665e-04
      3.58040035e-02 6.67472545e-04 1.73745193e-02 6.08819164e-03
      3.17212909e-01 3.17212909e-01 7.02789938e-03 1.75124630e-02
      7.28221377e-03 3.17212909e-01 3.42555111e-03 1.73200458e-01
      6.03423044e-02 3.17212909e-01 1.84827536e-01 3.02110892e-02
      7.76836425e-02 1.24854669e-02 5.64943314e-01 1.37771834e-02
      6.81962222e-02 2.33913679e-02 1.81711227e-01 3.50051939e-01
      8.59242026e-03 1.71203725e-02 2.60304683e-03 1.08557113e-01
      1.36597618e-03 1.58167642e-03 1.31642784e-03 3.44344556e-01
      6.46533677e-03 3.99949634e-03 5.67228300e-03 2.06592567e-02
      5.64943314e-01 2.86175739e-02 6.29550731e-03 5.07395808e-03
      4.17644996e-03 3.54818371e-03 3.19276098e-03 5.08463988e-03
      2.52020755e-03 1.46907225e-01 5.05553931e-03 3.81649326e-04
      1.95276679e-03 2.58169067e-03 4.98402089e-01 1.04648771e-03
      1.64199236e-03 8.56602419e-05 5.77113777e-03 0. 6.59199839e-04
      2.20293587e-04 4.98402089e-01 4.98402089e-01 0. 0. 0.
      3.14285350e-03 4.92932566e-04 5.02248993e-04 8.73095123e-05
      4.98402089e-01 1.08717452e-03 1.01465103e-03 1.62403926e-03
      2.14150627e-04 9.55749676e-03 2.65143905e-03 7.69700913e-04 0.
      9.63664788e-04 1.68015901e-02 5.47483470e-03 2.74912291e-03
      5.27605647e-03 2.19765231e-02 8.50456022e-03 8.16931576e-03
      2.89183646e-03 1.65182780e-02 2.93148607e-01 0. 9.41875333e-05
      1.92659048e-04 1.14003748e-01 1.68678380e-04 1.39219845e-02
      4.89514135e-03 2.92838216e-01 1.89091280e-01 1.45519397e-03
      3.54442513e-04 9.85213462e-03 5.18517792e-01 6.03033602e-03
      2.67287910e-01 9.20579433e-02 1.87143818e-01 4.88733454e-03
      1.14759337e-03 1.88691728e-03 2.79103033e-03 6.12177253e-02
      1.20205095e-03 3.93083878e-03 4.22387943e-03 5.60566364e-03
      3.91252246e-03 1.06387073e-03 2.57256627e-03 1.69012193e-02
      5.18517792e-01 1.22410487e-02 3.23361158e-01 1.11652337e-01
      5.11817215e-03 6.42490759e-02 1.84708813e-04 3.78013006e-04
      1.36477007e-02 3.51085067e-01 1.24690691e-02 1.33658037e-01
      4.57530171e-02 6.47648573e-02 1.60124779e-01 1.34180635e-04
      4.20893484e-04 1.28631550e-03 5.87089136e-02 1.62448687e-03
      2.91104596e-02 1.15732681e-02 1.61622748e-01 3.51085067e-01
      8.87363125e-03 2.57834941e-02 8.08123220e-03 3.51085067e-01
      7.74511555e-03 3.51085067e-01 1.34497225e-01 3.51085067e-01
      3.51085067e-01 2.21840814e-02 6.44587502e-02 6.96271542e-04
      1.18072130e-01 0. 1.00602135e-01 3.43911909e-02 3.51085067e-01
      2.30558455e-01 3.42886196e-04 6.73667892e-05 1.25287916e-05
      2.42594699e-03 4.86416247e-04 2.53399514e-04 2.14727523e-04
      2.31361538e-01 2.16693476e-01 3.85200069e-03 1.23635959e-03
      1.55362056e-03 6.97687967e-03 2.59025092e-03 5.10733835e-02
      1.80168562e-02 2.09931925e-01 4.16148275e-01 8.56464263e-03
      2.45647486e-02 4.45152196e-04 1.03829853e-01 0. 1.50600122e-02
      6.42109709e-03 4.16148275e-01 4.16148275e-01 2.49630329e-03
      1.59672555e-03 1.75910431e-03 7.87617918e-03 1.64265605e-03
      2.85899043e-01 9.41181481e-02 4.16148275e-01 7.38505870e-02
      4.65170806e-03 8.29277188e-03 2.97985179e-03 8.36611632e-03
      1.63544656e-03 3.81922312e-02 1.46486694e-02 7.04302117e-02
      2.86997706e-02 3.12524624e-02 9.74870399e-02 1.23961484e-02
      3.58229876e-01 1.08468076e-02 4.85531166e-02 1.82920042e-02
      3.02444138e-02 3.58229876e-01 1.06769493e-02 2.79353876e-02
      2.68372684e-03 5.99710969e-03 1.84351753e-03 2.10217461e-01
      6.66323826e-02 3.58229876e-01 3.58229876e-01 1.43014684e-01
      3.58229876e-01 6.85735792e-03 3.58229876e-01 1.22175450e-02
      2.03698054e-02 6.48432365e-03 3.58229876e-01</_>
    <_>
      1.94975704e-01 1.46476731e-01 1.60622336e-02 5.97289822e-04
      1.09109059e-02 6.58738019e-04 5.32724429e-04 2.19565397e-03
      1.05657525e-01 3.41073006e-01 4.21360917e-02 2.45825591e-04
      7.02657853e-05 9.65600251e-04 8.78317165e-04 5.13666077e-04
      1.17042870e-03 3.21735770e-01 3.41073006e-01 3.41073006e-01
      1.14669867e-01 2.65561678e-02 3.41073006e-01 8.01801588e-03
      1.37945652e-04 1.22235285e-03 2.47296423e-01 3.41073006e-01
      1.53741702e-01 3.46401632e-02 3.15921530e-02 1.46205842e-01
      3.25761060e-03 1.05274310e-04 4.68171434e-04 3.41073006e-01
      2.82485574e-01 3.93610499e-05 1.17783267e-04 1.58490453e-04
      2.89504009e-04 1.04071965e-04 5.08790690e-05 0. 2.81783074e-01
      3.30165744e-01 1.02456578e-03 7.50897219e-04 1.04134809e-03
      6.30106369e-04 2.27603319e-04 1.07908295e-03 1.95850997e-04
      3.28090698e-01 3.93731683e-01 6.61081308e-03 4.08561807e-03
      3.76089499e-03 5.92885586e-03 3.93217088e-05 8.47984302e-06 0.
      3.93731683e-01 3.93731683e-01 4.75135981e-04 3.53396201e-04
      4.48993698e-04 6.18237595e-04 3.79338853e-05 3.16594349e-04
      1.26043233e-04 3.93731683e-01 2.86797076e-01 1.44644734e-03
      6.12472650e-04 8.80330510e-04 1.66478660e-03 3.41485662e-04
      1.68850517e-03 2.13452242e-02 3.20868641e-01 1.54770017e-01
      1.52471534e-03 1.05815055e-03 4.71271807e-04 9.01861954e-03
      7.81951414e-04 1.55003974e-02 1.59158111e-01 2.61680424e-01
      3.31555784e-01 4.93435713e-04 2.99142674e-04 1.81969535e-03
      1.01380482e-01 2.29915641e-02 2.61256825e-02 8.73606652e-02
      3.31555784e-01 3.31555784e-01 8.27792974e-04 8.66235350e-04
      3.68447346e-03 3.31555784e-01 3.27921323e-02 1.14609584e-01
      3.31555784e-01 3.31555784e-01 1.08880967e-01 9.90690961e-02
      5.70631512e-02 2.98795104e-02 3.36128116e-01 1.24077080e-02
      2.23931434e-04 1.37608848e-04 7.22888708e-02 3.36128116e-01
      5.17071262e-02 3.64722535e-02 3.45730521e-02 3.36128116e-01
      9.70910676e-03 7.60076218e-05 2.54004772e-05 3.36128116e-01
      1.00266330e-01 1.07467221e-03 5.31186350e-03 8.51311721e-03
      3.36128116e-01 3.49639803e-02 1.27638698e-01 9.84884053e-02
      1.02182858e-01 3.36128116e-01 1.53243833e-04 6.19074656e-03
      6.98444573e-03 3.36128116e-01 4.18252759e-02 4.61787805e-02
      6.71803653e-02 3.36128116e-01 3.52362484e-01 5.96247381e-03
      6.51596487e-03 6.13775523e-03 3.46335433e-02 1.28641981e-03 0. 0.
      3.52362484e-01 3.52362484e-01 1.07202632e-03 5.91449440e-04
      1.29385164e-03 3.12742963e-03 7.78541144e-04 0. 4.28222324e-04
      3.52362484e-01 3.52362484e-01 2.67133128e-05 1.18644058e-03
      1.23271102e-03 4.09300737e-02 7.14035612e-03 7.29935756e-03
      8.60696379e-03 3.52362484e-01 3.52362484e-01 1.19873136e-03
      1.01351691e-03 1.08004827e-03 3.58014344e-03 1.03805470e-03 0.
      4.31520952e-04 3.52362484e-01 3.19298595e-01 9.28163587e-04
      5.18890040e-04 8.73837899e-03 2.76244730e-01 2.56486256e-02
      2.76705790e-02 3.44856158e-02 3.35112572e-01 1.15845039e-01
      4.07100801e-04 7.44368299e-04 1.35016581e-02 3.35112572e-01
      3.62227224e-02 6.37644529e-02 1.10354312e-01 1.66322872e-01
      3.35112572e-01 4.80799787e-02 3.21402326e-02 3.40877660e-02
      3.25849235e-01 5.29564265e-03 4.61176271e-03 1.17849163e-03
      3.35112572e-01 1.56704769e-01 1.17044404e-01 1.34442821e-01
      4.98685278e-02 3.35112572e-01 1.08214905e-02 6.14901632e-03
      1.65054749e-03 1.60199955e-01 2.91385502e-01 1.39101990e-03
      1.12354453e-03 1.76728773e-03 3.22613329e-01 1.97623018e-02
      2.80460477e-01 2.90837288e-01 2.95071483e-01 3.22613329e-01
      1.01312420e-04 2.19068635e-04 2.50975543e-04 1.47123948e-01
      2.33281236e-02 5.90786189e-02 1.51017010e-01 3.22613329e-01
      1.66043982e-01 7.88625504e-04 4.59113449e-04 0. 7.67764775e-03
      1.63401637e-04 8.29271749e-02 1.55634344e-01 1.67167887e-01
      3.22613329e-01 5.23109884e-05 1.56533832e-04 0. 1.13959206e-04 0.
      7.91637320e-03 7.44472593e-02 3.22613329e-01 3.59180868e-01
      5.45471084e-06 1.63225741e-05 2.81088505e-05 6.00077957e-03
      2.55199126e-03 4.67374688e-03 5.51100168e-03 3.59180868e-01
      3.59180868e-01 1.87159036e-04 1.66252154e-04 6.93957045e-05
      4.41084034e-04 1.19700468e-04 0. 2.90861772e-05 3.59180868e-01
      3.33253056e-01 0. 0. 0. 0. 0. 0. 0. 3.33456725e-01 3.59180868e-01
      0. 0. 0. 0. 0. 0. 0. 3.59180868e-01 3.06858659e-01 9.26888883e-02
      3.22844088e-02 1.81925017e-02 9.82595608e-02 2.22399132e-04 0.
      2.62998394e-04 3.06858659e-01 3.06858659e-01 3.06858659e-01
      2.78083563e-01 2.71948725e-02 3.06858659e-01 3.94929526e-03 0.
      9.92092304e-04 3.06858659e-01 3.06858659e-01 4.23667133e-02
      1.17286702e-03 3.69088048e-05 1.08716868e-05 0. 0. 1.16304189e-04
      3.06858659e-01 2.29626969e-01 1.78380266e-01 8.14417601e-02
      1.62936602e-04 5.73846232e-03 3.30383657e-04 0. 6.97824871e-04
      2.30041206e-01</_>
    <_>
      3.44711542e-02 9.92483497e-02 2.24991709e-01 7.76343653e-03
      1.48174807e-01 1.06486632e-03 5.88133233e-04 4.95857501e-04
      2.92613022e-02 3.24835241e-01 1.96495757e-01 2.78531641e-01
      6.52256468e-03 9.99889895e-02 2.13517947e-03 1.18830858e-03
      4.30513290e-04 3.24835241e-01 1.81076918e-02 5.19215129e-02
      2.07222849e-01 1.40433125e-02 3.24835241e-01 6.75464049e-03
      1.12365626e-04 7.74950138e-04 1.81312393e-02 3.24835241e-01
      1.21009268e-01 3.02401572e-01 1.33217676e-02 3.24835241e-01
      8.44959170e-03 8.42742156e-05 1.72048793e-04 3.24835241e-01
      3.42302084e-01 4.63670157e-02 3.75369824e-02 3.59845115e-04
      6.80010533e-03 6.64901105e-04 3.48786067e-04 2.47132382e-04
      3.42302084e-01 3.42302084e-01 1.34651572e-03 1.22994592e-03
      1.11282722e-03 5.03652496e-03 1.29168096e-04 2.25197952e-02
      2.92247199e-02 3.42302084e-01 3.42302084e-01 3.33952792e-02
      6.11060224e-02 1.58155442e-03 1.70243382e-01 1.58361450e-03 0.
      1.57959890e-04 3.42302084e-01 3.42302084e-01 6.02167274e-04
      5.48921933e-04 2.41588103e-03 1.33384645e-01 2.71870958e-04
      4.46123853e-02 2.43258011e-02 3.42302084e-01 3.25867742e-01
      2.23682262e-03 7.95189873e-04 2.36146338e-03 6.46338016e-02
      2.81377952e-03 2.01096252e-01 1.55025110e-01 3.25867742e-01
      6.23486079e-02 1.31276215e-03 2.79781205e-04 2.96179601e-03
      1.80007681e-01 7.28598190e-03 2.91350991e-01 1.41377956e-01
      7.04208612e-02 3.25867742e-01 1.15511660e-03 3.54068616e-04
      6.11241069e-03 3.25867742e-01 4.97659761e-03 2.23573193e-01
      9.74511504e-02 3.25867742e-01 4.82922979e-02 6.72805647e-04
      5.97910766e-05 8.54335632e-03 3.25867742e-01 1.25561999e-02
      2.73270398e-01 7.54780024e-02 4.76219952e-02 2.00537639e-03
      3.14913993e-03 1.77082736e-02 8.41015019e-03 4.86561865e-01
      7.98252039e-03 0. 6.47002365e-04 2.89782230e-03 7.59904534e-02
      1.41257485e-02 5.05605862e-02 9.69377160e-03 4.86561865e-01
      9.91033670e-03 0. 1.07833715e-04 7.70867690e-02 3.51836323e-03
      1.20962341e-03 5.79437183e-04 6.92493282e-03 4.86561865e-01
      7.97391497e-03 2.63198894e-02 3.81738134e-03 3.20097362e-03
      1.13530323e-01 2.22796691e-04 1.59989781e-04 8.17491580e-03
      4.86561865e-01 8.78552161e-03 7.35480711e-02 2.14455109e-02
      1.15277350e-01 2.56718785e-01 1.12736598e-02 3.48576270e-02
      3.58889648e-03 2.92613596e-01 4.64644376e-03 1.02038313e-04 0.
      2.59731710e-01 2.92613596e-01 2.87558860e-03 1.66846323e-03
      5.35077276e-03 2.92613596e-01 4.54330910e-03 3.01653035e-02
      1.06274206e-02 2.92613596e-01 2.92613596e-01 2.30097809e-04
      1.51512184e-04 3.15326941e-03 2.92613596e-01 3.68449697e-03
      4.94523570e-02 1.70692857e-02 2.92613596e-01 2.92613596e-01
      1.78414825e-02 4.31426503e-02 5.96824754e-03 2.92613596e-01
      6.59192214e-03 1.96857820e-03 9.13308410e-04 2.92613596e-01
      8.15280154e-02 1.50655222e-03 5.22568473e-04 6.98154978e-03
      4.85715389e-01 4.83499374e-03 4.09529805e-02 1.26784267e-02
      8.03224593e-02 8.02099053e-03 1.96534471e-04 2.82873043e-05
      8.83661024e-03 4.85715389e-01 8.19536019e-03 2.60986760e-02
      4.94135590e-03 7.83660449e-03 1.21068247e-01 1.88355949e-02
      6.10025674e-02 1.23995421e-02 4.85715389e-01 7.96057191e-03
      8.94820783e-04 4.48386680e-04 1.18692629e-01 1.20626008e-02
      6.86359359e-03 4.10523675e-02 1.68320406e-02 4.85715389e-01
      1.21496813e-02 1.88736449e-04 6.30724098e-05 1.16079841e-02
      1.84161924e-02 5.93015633e-04 1.39334326e-04 4.60103201e-03
      3.06761950e-01 1.46615794e-02 2.23883778e-01 6.12906590e-02
      2.06347089e-02 3.06761950e-01 3.09793366e-04 3.48335830e-04
      4.19628527e-03 3.06761950e-01 1.11150108e-02 3.06761950e-01
      1.38413116e-01 3.06761950e-01 3.59122939e-02 4.73395339e-04
      1.04500730e-04 5.18501911e-04 1.42525181e-01 1.18049392e-02
      2.54492670e-01 1.21682085e-01 4.19715047e-02 3.06761950e-01
      4.16160474e-04 2.61251873e-04 3.50011076e-04 9.60186347e-02
      7.82832317e-03 3.06761950e-01 2.39940390e-01 3.06761950e-01
      3.46287519e-01 1.26321116e-04 1.98635040e-04 7.58045062e-04
      1.25796840e-01 4.73543711e-04 5.37603498e-02 3.41817401e-02
      3.46287519e-01 3.46287519e-01 2.36968789e-02 4.02729809e-02
      2.27393280e-03 9.60852578e-02 7.71962455e-04 8.43647693e-04
      5.62733330e-04 3.46287519e-01 3.46287519e-01 1.16525160e-04
      1.48976251e-04 7.90888880e-05 6.12674654e-03 8.64543254e-05
      3.90045606e-02 5.20604104e-02 3.46287519e-01 3.46287519e-01
      3.23824249e-02 2.40934938e-02 5.88095398e-04 3.68681084e-03 0.
      5.72744932e-04 4.97377187e-04 3.46287519e-01 3.07300121e-01
      1.07808679e-01 2.35869005e-01 1.21766441e-02 3.07300121e-01
      5.39123034e-03 1.73053832e-03 1.24032435e-03 3.07300121e-01
      5.47113009e-02 8.66685137e-02 2.98667759e-01 1.94510054e-02
      3.07300121e-01 1.01502053e-02 7.29113235e-04 4.87918587e-04
      4.61950935e-02 3.07300121e-01 1.86940193e-01 2.32218847e-01
      4.38004872e-03 6.01371750e-02 9.68585780e-04 1.39879994e-03
      1.28165982e-03 3.07300121e-01 9.38415155e-02 1.69319108e-01
      3.07300121e-01 9.23714787e-03 1.75005600e-01 2.20757560e-03
      7.54887064e-04 5.77952189e-04 7.36757591e-02</_>
    <_>
      1.24439925e-01 7.33225718e-02 1.05623849e-01 4.33478467e-02
      2.38114372e-02 3.93615221e-04 1.08908513e-03 1.40831363e-03
      4.93089110e-02 3.15307468e-01 9.94946361e-02 1.25691339e-01
      1.97854713e-02 6.96097314e-03 1.61271903e-03 2.61823385e-04
      1.43612048e-03 3.15307468e-01 1.82958335e-01 1.46755934e-01
      2.01458767e-01 2.41889328e-01 3.15307468e-01 4.94854571e-03
      8.33244645e-04 9.79820266e-04 6.08965307e-02 3.15307468e-01
      2.91576087e-01 2.11451456e-01 2.22957879e-01 3.15307468e-01
      3.95836122e-03 1.52914887e-04 2.75872037e-04 3.15307468e-01
      3.43596727e-01 1.14206802e-02 1.31327212e-02 2.80812877e-04
      1.00961700e-03 4.21726058e-04 5.60334847e-05 2.05437973e-04
      3.40767115e-01 3.53704900e-01 9.72645590e-04 1.20227982e-03
      4.39009687e-04 2.63405754e-03 2.79453758e-04 7.09234411e-03
      6.92305854e-03 3.53704900e-01 3.53704900e-01 5.81385344e-02
      1.94916651e-02 2.60827653e-02 5.30414172e-02 4.02478676e-04
      1.51964603e-04 8.19027773e-05 3.53704900e-01 3.53704900e-01
      2.27260083e-04 7.63391028e-04 3.73402785e-04 3.81873734e-02
      2.03234144e-02 1.07624820e-02 4.45930250e-02 3.53704900e-01
      3.05314839e-01 2.33313860e-03 1.70927343e-03 3.68033914e-04
      4.96300962e-03 1.03112441e-02 8.80940408e-02 7.11393803e-02
      3.05314839e-01 8.43936577e-02 1.12123042e-03 7.83789030e-04
      2.52264133e-03 2.79085357e-02 4.86847982e-02 1.33729413e-01
      9.39474851e-02 1.78910106e-01 3.05314839e-01 4.81486175e-04
      1.04373239e-03 6.96881034e-04 3.05314839e-01 1.43916115e-01
      1.45729885e-01 2.15396121e-01 3.05314839e-01 1.20019190e-01
      1.81652213e-04 2.44963740e-04 7.70646241e-03 3.05314839e-01
      2.80584008e-01 2.48536929e-01 1.95418134e-01 2.72379845e-01
      2.51560695e-02 3.17021757e-02 3.34522016e-02 9.35510397e-02
      4.23166037e-01 9.16515663e-03 5.04494586e-04 4.02894075e-04
      9.02797189e-03 1.90042332e-01 1.00502573e-01 3.33753861e-02
      1.21639013e-01 4.23166037e-01 6.94345962e-03 0. 0. 1.70145392e-01
      1.34557812e-02 5.54112659e-04 4.18893149e-04 1.46016506e-02
      4.23166037e-01 1.01824701e-01 4.51509804e-02 5.50280623e-02
      2.42659114e-02 2.39405766e-01 0. 0. 1.46028772e-02 4.23166037e-01
      1.26648456e-01 4.31116968e-02 1.46455035e-01 2.51796216e-01
      3.10866207e-01 4.93306369e-02 5.70192421e-03 3.55370827e-02
      2.43000120e-01 1.44286267e-03 1.55184665e-04 5.18600282e-05
      3.10866207e-01 3.10866207e-01 3.96099727e-04 7.46676757e-04
      2.16430682e-03 1.82148963e-01 2.88638268e-02 4.33493406e-03
      4.09025326e-02 3.10866207e-01 3.10866207e-01 0. 4.50132829e-05
      3.90420575e-03 2.73387223e-01 3.21227647e-02 9.85804293e-03
      6.55383915e-02 3.10866207e-01 3.10866207e-01 5.28916344e-02
      8.01539794e-03 2.75599193e-02 2.03630641e-01 5.83611336e-03
      8.80443898e-04 1.03395188e-03 3.10866207e-01 1.70051813e-01
      2.71809287e-04 4.99934366e-04 3.92114930e-03 4.28245127e-01
      8.45941901e-02 2.40122955e-02 7.84038827e-02 1.82089940e-01
      2.20464990e-02 2.22880426e-05 6.66942215e-05 6.70300471e-03
      4.28245127e-01 1.13500215e-01 4.17317897e-02 4.70070280e-02
      4.32929471e-02 2.46067941e-01 1.13372795e-01 2.89592277e-02
      9.28860679e-02 4.28245127e-01 7.81467929e-03 3.56818491e-04
      9.63819271e-04 2.33786285e-01 4.75313403e-02 8.10785145e-02
      5.31695299e-02 1.28820404e-01 4.28245127e-01 7.28393719e-03
      1.79088471e-04 5.77799801e-04 3.22853103e-02 6.30772561e-02
      1.59814899e-05 3.07693146e-04 8.87742452e-03 3.19097638e-01
      1.80112004e-01 1.72115609e-01 2.33655155e-01 1.51359990e-01
      3.19097638e-01 0. 0. 5.69768110e-03 3.19097638e-01 1.67572007e-01
      1.35153428e-01 3.19097638e-01 3.19097638e-01 5.24381660e-02 0.
      1.03948158e-04 2.12624262e-04 3.51335108e-02 3.64227109e-02
      8.56461972e-02 1.51734248e-01 1.32399574e-01 3.19097638e-01 0. 0.
      0. 9.93496645e-03 1.56562682e-02 6.44215345e-02 1.90656334e-01
      3.19097638e-01 3.51293951e-01 0. 4.17910196e-05 4.58765484e-04
      4.46158312e-02 1.77027062e-02 9.26874578e-03 5.80139905e-02
      3.51293951e-01 3.51293951e-01 4.14004773e-02 5.49071375e-03
      1.49545195e-02 3.22055407e-02 8.77091836e-04 2.18911751e-04
      4.45630751e-04 3.51293951e-01 3.51293951e-01 0. 1.67164071e-05
      3.41930208e-05 5.73821781e-05 4.63090510e-05 3.35651007e-03
      1.86863132e-02 3.51293951e-01 3.51293951e-01 1.03514986e-02
      1.05334772e-03 2.05158052e-04 3.55235010e-04 3.70472153e-05
      1.81117739e-05 1.55042333e-04 3.51293951e-01 3.05083424e-01
      2.73143440e-01 8.31024498e-02 1.11980297e-01 2.71801412e-01
      1.86838629e-03 4.91307583e-04 1.50770869e-03 3.05083424e-01
      2.36023933e-01 3.04759145e-01 1.95960104e-01 2.15780452e-01
      3.05083424e-01 1.89058261e-03 4.29674285e-04 1.16646336e-03
      1.21636942e-01 3.05083424e-01 1.34623945e-01 3.91700566e-02
      7.60177756e-03 4.08270210e-03 2.10292041e-04 1.32421890e-04
      4.11850517e-04 3.05083424e-01 1.94521546e-01 1.90878779e-01
      9.76406410e-02 4.09327708e-02 4.04635482e-02 1.57719027e-04
      1.16591000e-04 2.21696959e-04 9.18519497e-02</_>
    <_>
      8.95486996e-02 7.85604343e-02 5.85280657e-02 1.55282312e-03
      2.10129488e-02 1.12113077e-03 7.19355710e-04 7.47274549e-04
      1.20663242e-02 3.43985766e-01 1.11581266e-01 5.69691099e-02
      1.31284865e-03 9.50480718e-03 4.48452251e-04 1.24676735e-03
      6.63609593e-04 2.28111207e-01 1.58020169e-01 2.21266538e-01
      2.35475495e-01 2.10760068e-02 3.43985766e-01 8.14745855e-03
      4.39618307e-04 2.19181040e-03 1.83672607e-02 3.43985766e-01
      3.43985766e-01 2.57558763e-01 6.26702979e-02 3.43985766e-01
      8.79432075e-03 3.35684774e-04 6.94568909e-04 3.43985766e-01
      3.00458431e-01 1.26625970e-02 2.91454024e-03 2.43942632e-04
      1.01074344e-03 0. 3.02419357e-04 1.01063502e-04 2.60735303e-01
      3.20165783e-01 7.38402130e-04 5.83995308e-04 1.08646997e-03
      1.98807917e-03 1.76969887e-04 0. 7.78297894e-03 3.49624574e-01
      3.87359768e-01 5.89121506e-02 2.34764814e-02 1.58588663e-02
      6.36830106e-02 7.85857905e-04 5.04032214e-05 3.98255797e-05
      3.87359768e-01 3.87359768e-01 1.50079170e-04 3.40641272e-04
      8.47279036e-04 4.95403148e-02 1.24707511e-02 1.43093010e-02
      3.94561552e-02 3.87359768e-01 2.22118616e-01 6.40790036e-04
      7.19638541e-04 1.33978168e-03 5.87551296e-03 1.85546419e-03
      3.80357541e-02 8.02448764e-02 3.30941319e-01 3.08052413e-02
      5.20462519e-04 3.81891412e-04 7.19326781e-04 2.33255327e-02
      3.90033261e-03 7.23023340e-02 1.00115582e-01 1.38774961e-01
      3.30941319e-01 2.87288451e-04 2.83054222e-04 2.07955949e-03
      3.30941319e-01 4.47327234e-02 1.77974015e-01 2.77974725e-01
      3.30941319e-01 6.49716556e-02 1.00337365e-03 6.36485711e-05
      3.79977887e-03 3.30941319e-01 2.79861614e-02 2.89756000e-01
      2.91060358e-01 2.66750604e-01 2.39115134e-02 4.24573310e-02
      5.93981743e-02 1.53152086e-02 4.12696213e-01 8.17999709e-03 0.
      1.11597741e-03 3.06279701e-03 2.60367841e-01 9.21781734e-02
      9.11173597e-02 5.26060686e-02 4.12696213e-01 1.67865474e-02 0.
      2.09661041e-04 1.83952436e-01 9.68438014e-03 6.32081938e-04
      1.79846620e-03 9.14369151e-03 4.12696213e-01 2.08256263e-02
      1.15556933e-01 3.16727236e-02 1.77121814e-02 2.47076273e-01
      1.77829090e-04 8.28421302e-03 1.62114594e-02 4.12696213e-01
      6.38506338e-02 1.45554572e-01 1.03158914e-01 2.72660553e-01
      3.12513292e-01 3.07006836e-02 2.55145766e-02 2.31180638e-02
      2.30141282e-01 5.93217509e-03 0. 1.02756771e-04 3.12513292e-01
      3.12513292e-01 2.44420749e-04 4.36443952e-04 5.26257791e-03
      1.82934761e-01 1.89314745e-02 2.10949760e-02 2.39025131e-02
      3.12513292e-01 3.12513292e-01 7.71707491e-05 4.19179676e-03
      5.49874082e-03 2.72515327e-01 2.74648201e-02 3.09008621e-02
      4.13812213e-02 3.12513292e-01 3.12513292e-01 3.23533714e-02
      2.30244417e-02 2.33993530e-02 2.13685513e-01 4.98259719e-03
      4.18039458e-03 1.64713291e-03 3.12513292e-01 1.95831329e-01
      2.49730540e-04 1.30609304e-04 1.10238707e-02 4.12898213e-01
      3.80567946e-02 6.99777901e-02 7.27101937e-02 2.50466168e-01
      1.62623953e-02 1.91522646e-04 0. 7.21224630e-03 4.12898213e-01
      1.94234066e-02 7.93837458e-02 6.01648800e-02 4.87602986e-02
      2.73362815e-01 8.19355324e-02 1.08487464e-01 5.26168682e-02
      4.12898213e-01 1.00532547e-02 7.42314290e-03 1.07390445e-03
      2.50341207e-01 4.18983921e-02 4.88051176e-02 1.52251840e-01
      3.25919315e-02 4.12898213e-01 8.71016271e-03 2.94664106e-03
      1.22386322e-04 2.88812257e-02 4.31417674e-02 8.93535253e-05
      2.67379801e-04 5.50123071e-03 3.16734165e-01 2.66231801e-02
      3.16734165e-01 1.34909794e-01 1.00297637e-01 3.16734165e-01
      1.77528927e-04 5.31234196e-04 4.90987627e-03 3.16734165e-01
      5.31222224e-02 3.16734165e-01 3.16734165e-01 3.16734165e-01
      2.64308993e-02 1.16169040e-05 3.47622045e-05 0. 1.81797389e-02
      4.56238817e-03 1.04760259e-01 8.04734305e-02 6.95886686e-02
      3.15554708e-01 2.90422613e-05 8.69055148e-05 0. 9.03276168e-03
      3.17492569e-03 9.99956653e-02 1.65997744e-01 3.16734165e-01
      3.56731147e-01 4.07895241e-05 1.22057827e-04 5.19020541e-04
      6.15971871e-02 1.10598393e-02 2.98393145e-02 5.83285093e-02
      3.56731147e-01 3.56731147e-01 4.11228463e-02 1.69892143e-02
      9.35254339e-03 4.56575491e-02 4.23384685e-04 4.09003478e-05
      1.70197003e-04 3.56731147e-01 3.18238646e-01 4.64980894e-06
      1.39140011e-05 0. 2.72705453e-04 1.76942649e-05 4.49577859e-03
      2.50638090e-02 3.44005525e-01 3.56731147e-01 1.63501594e-02
      4.69468534e-04 0. 0. 0. 0. 0. 3.56731147e-01 3.17375928e-01
      2.50825137e-01 2.67592311e-01 4.11018059e-02 3.17375928e-01
      3.55445384e-03 3.65321786e-04 2.84883659e-04 3.17375928e-01
      1.92167461e-01 1.94909200e-01 3.17375928e-01 3.32332551e-02
      3.17375928e-01 6.98890025e-03 1.05204375e-03 3.47076828e-04
      1.01444647e-01 3.17375928e-01 1.27875358e-01 7.14660734e-02
      1.43252651e-03 5.08666737e-03 2.27902769e-04 1.80700023e-04
      6.03867993e-05 3.13660741e-01 1.23991430e-01 1.13006435e-01
      1.35038227e-01 3.58131644e-03 2.14591827e-02 6.88366883e-04
      5.82624984e-04 1.94703200e-04 5.61702773e-02</_>
    <_>
      1.49037153e-01 6.69741705e-02 1.07492618e-01 7.21656892e-04
      4.35034838e-03 1.81431079e-03 1.33581250e-03 1.29117165e-03
      7.51291513e-02 3.27433556e-01 1.92248031e-01 4.75581177e-02
      5.41242596e-04 2.02314835e-03 1.06853608e-03 3.71150090e-04
      3.41597944e-04 1.92328125e-01 3.27433556e-01 2.48163998e-01
      3.27433556e-01 5.97273670e-02 2.83729911e-01 4.19444917e-03
      1.15421682e-03 1.04284415e-03 1.92258164e-01 3.27433556e-01
      3.27433556e-01 1.97062492e-01 2.24482957e-02 1.06448010e-01
      2.16951850e-03 1.60186668e-04 1.88588980e-04 3.27433556e-01
      3.22886288e-01 1.53655767e-01 1.10353700e-04 2.95524969e-05
      6.49359019e-04 9.19699814e-05 0. 0. 1.60255656e-01 3.22886288e-01
      2.43444309e-01 1.26687181e-03 4.43373923e-04 1.99746084e-03 0.
      5.83676992e-05 1.96228502e-04 2.32600629e-01 3.22886288e-01
      3.22886288e-01 6.47283904e-03 2.01570452e-03 3.84431332e-03
      1.53283272e-05 0. 0. 3.22886288e-01 3.22886288e-01 3.22886288e-01
      3.95437120e-04 7.23766687e-04 1.17984752e-03 2.10438579e-04
      2.03824267e-04 1.75504829e-04 3.22886288e-01 2.96170354e-01
      2.07645237e-01 8.85541027e-04 5.80964785e-04 1.03738699e-02
      1.32415839e-03 1.13542583e-02 4.98921759e-02 2.41144761e-01
      2.96170354e-01 1.01176202e-01 5.67747804e-04 1.36440026e-03
      1.12441540e-01 3.71914469e-02 6.32864907e-02 2.48358861e-01
      2.64308512e-01 2.96170354e-01 2.64481515e-01 6.37404039e-04
      3.64007871e-03 2.37543300e-01 8.66309553e-03 6.62240237e-02
